-0.16140674	-0.116933174	0.25877488	1.1396259	2.1135755	-0.5879172	0.42081663	-0.83761835	0.886483	-0.44954434	0.021923592	0.40361416	0.12470793	-0.5983927	-0.39917454	0.60129374
-0.5959971	-0.009826254	0.23866291	0.59172755	0.73629475	0.27747622	-0.18058343	-0.32519072	-0.101603925	-0.38101077	0.28121847	1.1536876	-0.85038936	-0.24076806	0.4195745	0.26702857
-0.09402678	-0.5273936	-0.21059409	-0.006	1.1749581	0.0030558852	-0.61647457	0.48878098	0.26937556	-0.6670401	-0.29973042	0.7934753	-0.35758245	-0.25244096	0.030318076	0.10732886
-0.07516283	0.24725972	0.26224247	0.104565695	0.19941719	-0.16297595	0.31977424	-0.2482537	0.27128118	0.07628753	0.17638524	-0.120123185	0.15543231	0.0072151357	-0.18072185	0.021058807
-0.14603418	-0.3291409	0.6398962	-0.53887737	0.5462893	0.26350883	-0.20847966	0.5009496	0.7356902	0.22180513	0.09859738	0.14032978	0.14017184	-0.5854257	-0.1714978	0.5534572
1.1320455	-1.2475529	-2.1026454	-0.4806407	1.389134	-0.7312961	-1.4495525	1.0619969	0.35376713	-1.2274812	-1.55108	0.41982082	0.16859429	-0.3619618	-0.5568336	-0.40090668
-0.21082474	-0.22787711	0.0074575287	0.3123475	0.3667495	0.22416085	-0.16377033	-0.16258956	-0.10112161	0.12800233	0.03488007	0.121445626	-0.2443674	-0.28343552	0.3060313	0.40416816
0.657241	-0.13378753	-0.19050261	-0.32541752	0.06263345	-0.496351	0.34682903	0.14380272	0.6681329	0.6293845	-0.42121825	-0.9916995	0.9132516	-0.10505972	-0.68177676	0.25770926
0.38593376	-0.08252392	-0.32209203	0.1033537	0.06620038	-0.40313548	0.17379285	-0.0791887	0.05345448	0.025033643	-0.33761585	-0.42994595	0.31742004	0.03036039	-0.34325975	-0.06617251
0.14178684	0.24914439	-0.8952577	1.4049395	-0.11346095	-0.39440235	0.4781812	-1.661507	-1.1161417	-0.25965035	-0.20921949	-0.06095565	-0.20654967	0.5028624	0.21617885	-0.31658506
0.16819537	-0.21929742	-0.29006276	0.4776164	0.32559356	-0.18294398	-0.06842827	-0.25918248	-0.20879054	-0.16866986	-0.32276058	0.017116448	-0.07891826	-0.013200994	0.031282533	0.02951652
0.021577636	-0.2883923	0.16005005	0.034551054	0.29517192	0.11529828	-0.1581748	0.061994188	0.20371544	0.41150153	-0.05150196	-0.22742832	0.17892504	-0.45935237	0.047080636	0.47220677
0.13216498	0.44816098	0.8949129	-0.9026436	-0.46078983	-0.37164474	0.8713693	0.068294704	1.3088031	1.1363958	0.28577963	-0.9562021	1.0962265	0.04602943	-0.83456147	0.38570076
-0.31976157	0.33994266	0.2660702	0.37038577	0.026827604	-0.018246379	0.38601553	-0.5527352	-0.07793854	-0.108173035	0.32660908	0.2886861	-0.19191228	0.13102463	0.049023923	-0.09790637
-0.9116097	0.5021597	1.0385978	-0.10841866	-0.18092842	0.60906535	0.3814847	-0.25741512	0.37001938	0.27071428	0.86605585	0.88666636	-0.52282125	-0.0672823	0.3265382	0.2949372
-0.24780133	0.2050856	0.705572	-0.13375635	-0.045596015	0.19068372	0.27556112	-0.1554043	0.504877	0.51411396	0.3360422	-0.12624231	0.1797652	-0.22454524	-0.02233491	0.4526789
1.2292446	-0.52417845	-1.7286918	-0.630744	1.1116753	-1.4139127	-1.0262699	0.91958076	0.31583244	-1.6370169	-1.1057252	0.83708483	0.12525317	0.35697144	-0.89465094	-1.2443789
-0.2510587	0.74537575	0.3892095	0.21039684	-0.40820095	-0.27177534	0.8139338	-0.8129689	0.080506265	-0.048985735	0.4912348	0.01341822	0.077822566	0.5128954	-0.16124311	-0.32889044
-0.1449714	0.01030023	0.18385983	-0.041088358	0.32173115	0.010895056	-0.078984894	0.012223887	0.25432134	-0.17029867	0.10964209	0.37536165	-0.1294024	-0.13377868	0.006844697	0.017063197
0.14346936	-0.27192795	0.23317629	-0.22675207	0.41717002	-0.0023042492	-0.19460241	0.26995906	0.50118804	0.27192968	-0.17143418	-0.14864494	0.27788723	-0.4175989	-0.21422893	0.38825214
-0.07196925	0.3788895	0.2610636	-0.12271218	-0.021946404	-0.23140936	0.32190338	-0.13074914	0.20560034	-0.058263265	0.21645421	-0.021192215	0.12709554	0.22561403	-0.23877692	-0.19823132
0.7984781	-1.1361187	-1.274809	-0.27243632	1.0383214	-0.13910328	-0.9703345	0.75622445	0.34399587	-0.12789015	-1.2296343	-0.2556507	0.26132885	-0.70569	-0.22787172	0.3643585
-0.14952362	-0.16007505	-0.47705677	0.59346664	0.5030644	0.032712705	-0.287281	-0.26529744	-0.4654731	-0.30664998	-0.1454546	0.4474916	-0.5060435	-0.03195069	0.30332097	-0.034671202
-0.020228906	-0.3768051	0.011158693	0.19742055	0.31221083	0.21877897	-0.24658409	0.029897723	0.20162624	0.6920798	-0.29624546	-0.0045919046	-0.11092259	-0.40802398	0.18916698	0.54522187
-0.11629392	-0.24151482	0.1828635	0.012563852	0.28331605	0.22407566	-0.22192891	0.090963334	0.09515133	0.2594617	-0.055093836	0.066354685	-0.020114487	-0.33327177	0.10074204	0.44529635
-0.4373664	0.3843693	0.48512003	-0.034069404	-0.10344015	0.1280691	0.31142813	-0.2492689	0.23875956	0.24834384	0.5064264	0.11963493	-0.07281408	0.072462305	0.0640863	0.086331286
0.45007026	-0.031231577	-0.2419508	-0.26147944	0.37308082	-0.41359735	0.037575085	0.21972737	0.38153273	-0.092824295	-0.3188287	-0.21338125	0.38272774	-0.0043577175	-0.46833214	-0.0902655
-0.023168813	-0.11049092	0.4061557	-0.40864894	0.19663905	0.027788712	0.005173693	0.25906798	0.4863782	0.1585709	0.03931405	0.048660982	0.1687362	-0.3013013	-0.14043748	0.32242694
-0.9240885	-1.7292359	-0.6824939	1.5244869	1.1278391	1.3145529	-1.3137188	-1.1343589	-1.1984146	1.6779065	-0.8999191	0.11958347	-0.903713	-1.4562479	1.3513876	1.7886612
-0.36030796	-0.0529424	0.2745816	0.17893875	0.22683738	0.29344836	-0.058697958	-0.11277271	0.021661608	0.07012515	0.24061838	0.3654342	-0.38331214	-0.22718072	0.23668131	0.23823361
0.092482954	0.09731275	0.0005550767	-0.004223925	0.08021561	-0.21078661	0.22810926	-0.11412359	0.18940149	0.22434257	-0.082836784	-0.27703378	0.29876778	-0.045906533	-0.22028163	0.0885913
-0.4605734	-1.3712285	0.056746446	1.1339577	0.32587487	0.9186649	-0.6182317	-1.3255827	-0.78077155	1.8818173	-0.4165439	-0.83365405	-0.15331198	-1.2210364	0.82775664	1.493154
0.19775274	0.9367496	0.9171456	-0.8284113	-0.995569	-0.547648	1.3575263	-0.43635955	1.2915244	1.5411711	0.40896413	-0.85703427	1.0179045	0.4966472	-0.89253235	-0.1374609
0.4759976	-0.36156332	-0.4803203	-0.04017021	0.32086685	-0.23580278	-0.08279512	0.10961883	0.20250002	0.13497598	-0.44343328	-0.43222395	0.419494	-0.17555498	-0.26683503	0.08728531
-0.04628858	-0.09071429	0.28842133	0.0016588389	-0.012166895	0.16036883	0.20364323	-0.15747604	0.33064955	0.6075545	0.11501013	-0.34714428	0.21654037	-0.24618599	-0.08662087	0.3845685
0.4059568	-0.15322658	-0.9349741	0.19601889	0.27855024	-0.28453058	-0.21289934	0.029726658	-0.27817482	-0.37323636	-0.5092206	0.058513362	-0.015266498	0.14819172	-0.072386995	-0.23962864
1.6854877	-1.7197065	-1.6010847	-1.5243454	1.542491	-1.1395715	-1.772993	1.7479284	1.4037955	-1.2276815	-1.5546238	-0.06378508	1.3180538	-1.4755721	-1.2906318	0.10510768
0.022389743	0.1466776	0.21779318	-0.11348807	0.004763745	-0.17606388	0.23446284	-0.11319403	0.31093034	0.053259756	0.12052509	-0.06459092	0.19209658	0.06075115	-0.25256237	0.009213129
-0.15224777	-0.600017	0.48703575	-0.04955237	0.41064137	0.4225142	-0.42099407	0.18321416	0.3565876	0.7627856	-0.054249737	-0.26399016	0.0608093	-0.8850676	0.1828383	0.9725575
-0.4429699	0.68202764	0.6568014	-0.12287111	-0.28758988	-0.048344508	0.62636554	-0.35955295	0.3063753	-0.06621654	0.54371953	0.41811883	-0.106653176	0.35302174	-0.11944746	-0.1777597
-0.12662444	0.28156105	0.50020695	-0.21839963	-0.13230522	-0.014111911	0.367755	-0.10708545	0.43373626	0.24234007	0.27660638	-0.10085812	0.14976409	0.044860817	-0.14151719	0.05536815
-0.117548496	-0.22221494	0.13895735	0.0665922	0.32923687	0.16738464	-0.19408986	-0.00554299	0.17302053	0.25572038	-0.014375257	0.01973503	-0.12015506	-0.29324904	0.15938497	0.3436446
-0.42531815	0.42061564	0.68289787	0.0145067	-0.16722171	0.12940474	0.37451798	-0.25276968	0.24219547	0.049220413	0.55644405	0.38599628	-0.17654862	0.054701418	0.120105214	0.0905743
-0.24159034	0.45656374	0.25273687	0.24645019	-0.16292974	-0.08037843	0.39330703	-0.42180243	0.008374634	-0.13573784	0.35997656	0.40061197	-0.24262314	0.27978104	0.010713889	-0.24350916
-0.38830903	0.31501982	0.4120879	0.20047759	-0.08535661	0.14456457	0.36186036	-0.43949652	0.024909806	0.25846705	0.43651685	0.04515087	-0.15333529	0.058253452	0.14051598	0.10923782
0.20878395	0.47669908	0.41555953	-0.40721714	-0.36089492	-0.46716	0.6277334	-0.10829398	0.67657775	0.45113164	0.21918988	-0.5436171	0.6777598	0.30178547	-0.6346835	-0.09088972
-0.2496752	0.42920494	0.5346988	-0.13927653	-0.23584048	-0.025333965	0.43059638	-0.24151376	0.32480392	0.19399484	0.392461	-0.035923082	0.124469966	0.08877776	-0.08520572	0.03188347
0.6818034	0.6730937	-1.2713921	0.7856909	0.3493811	-0.9413792	0.4942645	-0.7324631	-0.64280176	-0.6841771	-0.76112497	0.024893126	0.03829195	0.93343776	-0.33230823	-1.0339414
0.36861992	0.57594377	-1.2171687	1.061823	0.047137275	-0.74561834	0.3768972	-1.119811	-1.0961299	-0.75522614	-0.5064366	0.22949238	-0.24202588	0.8787508	-0.080913045	-0.84304476
0.20261796	0.23043814	-0.7834383	0.3978553	0.35656166	-0.45239052	-0.093760125	-0.1516304	-0.4327755	-0.85728157	-0.29641712	0.5372033	-0.36317825	0.530869	-0.080450386	-0.6972379
0.36068955	-0.17059998	-0.10807157	-0.6155302	0.3635149	-0.333678	-0.242894	0.5795984	0.62854797	-0.21012154	-0.33499292	-0.055328175	0.39997616	-0.08856563	-0.54877603	-0.09815393
-0.10548678	-0.31676477	0.3493259	-0.21493645	0.36515436	0.19610243	-0.17973849	0.21523975	0.39434192	0.32496527	-0.035236977	-0.10699711	0.099136084	-0.43305135	-0.057973493	0.50689995
-0.4312511	0.6032957	0.6952201	0.058490384	-0.38749886	0.039338116	0.6715564	-0.5358911	0.27067032	0.27706584	0.5570526	0.09303557	0.024143012	0.29454362	-0.0702822	0.0059239157
-0.6400177	0.3419161	0.714674	0.20182669	-0.23439533	0.39589918	0.4454842	-0.5018864	0.07925603	0.54576164	0.5841855	0.08006192	-0.22409047	-0.12892973	0.30573773	0.33963966
1.4109943	-1.4830981	-1.1480234	-1.391219	1.2977707	-0.7961809	-1.469904	1.4368508	1.2997867	-0.81644917	-1.3428807	-0.3378231	1.2783074	-1.3199556	-1.1588678	0.40828633
-0.08957368	0.35522345	0.1836395	-0.035107575	0.06719046	-0.27149498	0.30309063	-0.056492046	0.12860657	-0.2760626	0.1934568	0.35042173	-0.09382667	0.3429495	-0.20061074	-0.37618485
0.15627703	-0.13016132	-0.4478366	-0.0639781	0.44936776	-0.16805607	-0.269538	0.19192636	-0.02224754	-0.3903805	-0.24906977	0.19469655	-0.075271696	-0.021235293	-0.066785075	-0.15423563
0.110527925	0.085720666	-0.57539535	0.90150326	0.03863591	-0.19246511	0.2128001	-1.2218612	-0.7143745	-0.17651053	-0.15090069	-0.04745737	-0.15847927	0.2905044	0.17489757	-0.23006152
1.3449558	-1.3648663	-1.2040466	-1.2194746	1.3832917	-0.95917684	-1.4492418	1.3955916	1.0861443	-1.1460553	-1.2458223	0.15481575	1.0127033	-1.1652019	-1.0764198	-0.093387865
0.11650923	0.30243474	-0.07406874	-0.06913863	-0.023548732	-0.41326264	0.29624024	-0.056295905	0.1174183	-0.30356234	0.070625104	0.07903542	0.05660772	0.37744582	-0.24225764	-0.4078591
-1.2590406	0.76671976	1.2308009	-0.033281934	-0.41836944	0.70666105	0.7507188	-0.6644654	0.5817177	0.46189493	1.0463127	1.1123172	-0.69958407	0.098273955	0.41894767	0.2919172
-0.5360271	-1.3602972	-0.62020594	1.2004721	0.64731497	0.9980433	-0.9345733	-0.9283261	-0.9932354	1.2370712	-0.5879746	-0.17566267	-0.6399347	-1.1848942	0.94836515	1.3339962
0.36188412	1.1513927	0.4903336	-0.6202349	-1.0057968	-0.9451506	1.5548507	-0.67538816	0.92025757	0.9956519	0.3451759	-0.9481048	1.0473932	0.9629111	-1.1086166	-0.3982298
-0.8228189	0.16522734	0.7429928	0.31458545	-0.0602023	0.50261796	0.17076278	-0.54772073	0.07919211	0.5336253	0.5715691	0.5590494	-0.53738767	-0.21975036	0.47350097	0.4942355
-0.38660994	0.15154819	0.72054124	-0.32211092	0.08122763	0.18672109	0.16038767	0.17305167	0.5414938	0.17533171	0.34920752	0.4618545	-0.04703537	-0.1529042	-0.015696159	0.28556064
-0.55633926	0.50952387	0.92187977	-0.71247	0.3312259	0.11987231	0.34265515	0.22329395	1.0317557	-0.27041382	0.47506937	1.0484823	-0.0570981	-0.034172423	-0.35868236	0.020224024
-0.2685329	0.30319634	0.42057922	0.056998603	-0.14785266	0.09995083	0.2846983	-0.25717542	0.08289728	0.21037543	0.2875219	-0.012534645	0.029617384	0.06371702	-0.032952227	0.1083462
0.6681125	1.5251108	-1.4701015	1.025109	-0.09852957	-1.3879099	1.0524652	-1.231623	-1.0299311	-1.1318583	-0.38928062	0.31246075	-0.21842387	1.6738157	-0.51899266	-1.6383181
0.08169745	-0.53812224	-0.5824271	0.6117255	0.30830944	0.2252102	-0.120123796	-0.40924445	-0.28807235	0.47817785	-0.38736114	-0.5240027	0.022126801	-0.3355941	0.30050194	0.5053255
0.31568834	0.1304015	-0.1929222	-0.033283602	0.33343685	-0.5361836	0.06301348	0.0035289032	0.16467242	-0.44462144	-0.26028982	0.24830289	0.048279837	0.29557207	-0.34242755	-0.40837082
0.40602407	-0.12101626	-0.4025505	-0.40382862	0.53145635	-0.49614832	-0.3122468	0.5027409	0.39140746	-0.68881005	-0.32269123	0.35402	0.0035489274	0.07112361	-0.3908732	-0.48154354
-0.60022676	0.25678223	0.8999766	-0.02272622	-0.18586531	0.39923137	0.40385878	-0.5011445	0.4324627	0.98737174	0.5386008	0.035125453	0.011268667	-0.25868142	0.18681683	0.63405114
0.0033780858	0.17911227	0.005282586	-0.07073342	0.037256807	-0.28952587	0.18802397	-0.046874367	0.14484371	-0.23795043	0.050328575	0.07752793	0.06939725	0.15211202	-0.25109786	-0.19185072
0.12020111	-0.12714441	0.26957405	-0.117714964	-0.11455036	-0.015935713	0.10830971	-0.062375527	0.3660395	0.63274986	-0.097336985	-0.42515954	0.3395296	-0.297351	-0.15464798	0.40028286
0.29822895	-0.7325138	-0.41440287	-0.27881697	0.77105576	0.046140835	-0.8466221	0.5365105	0.26916653	-0.36319613	-0.6008153	0.3478461	-0.021238988	-0.47956192	-0.03475607	0.25962728
-0.18576156	0.44258586	0.14087033	0.16447563	-0.15286686	-0.102909714	0.41782948	-0.41211337	0.03523295	-0.08582975	0.23737943	0.12576625	0.026415454	0.34342793	-0.1276465	-0.16884224
0.33293816	-0.16681072	-0.29686016	-0.020798568	0.2966718	-0.23535198	-0.103362784	0.07698263	0.13704635	-0.13624787	-0.3579476	-0.17199554	0.235438	-0.065772094	-0.21554284	-0.07811175
0.73861927	0.09696241	0.04864281	-0.76582974	-0.27943555	-0.67654026	0.5353299	0.2769344	0.92017776	0.5258994	-0.3808997	-0.8680818	0.991354	0.11370244	-0.91545707	-0.023908932
0.9842141	-1.1751109	-0.55858344	-1.1004485	1.1069639	-0.45995367	-1.2496336	1.2067442	0.9648293	-0.69053644	-0.98905283	0.09237421	0.81463295	-1.1777189	-0.735121	0.37796432
-0.528575	0.2542437	0.6433945	-0.030369585	-0.09127833	0.35521507	0.23486266	-0.14613014	0.22571164	0.41333908	0.43287468	0.16865197	-0.14473754	-0.07965514	0.16554753	0.326314
-0.9958037	0.3676306	0.80839443	0.40283936	-0.29145107	0.5945376	0.41974702	-0.73130095	-0.05017594	0.41974068	0.8746609	0.47485375	-0.5262236	-0.0502309	0.5135559	0.29129088
0.8890057	-0.8187392	-1.0547476	-0.8179883	1.1874794	-0.6423388	-1.1893849	1.1130862	0.64400154	-1.1972744	-0.9903723	0.84147084	0.32524514	-0.3736921	-0.61519396	-0.446319
0.007848869	0.3098048	-0.7281046	0.57836556	0.42761505	-0.39712784	-0.09131983	-0.3035437	-0.55403835	-0.9051558	-0.05814909	0.81278116	-0.64881265	0.56806296	0.07200897	-0.7714723
-0.37681532	0.2922576	0.20013607	0.13780542	-0.10665545	0.06359843	0.24288125	-0.26797	-0.077907294	-0.13014051	0.39497778	0.37090358	-0.36785018	0.15526171	0.18940769	-0.10470105
0.507242	0.14241318	-0.62569696	0.10346718	0.076417	-0.6059923	0.12576348	-0.07089197	-0.03931284	-0.32387066	-0.35541296	-0.18709964	0.19362693	0.419263	-0.31695062	-0.4459067
0.14566599	0.16435379	-0.16083594	-0.074217215	0.25841624	-0.39403158	-0.0076793493	0.10762935	0.016017448	-0.613339	-0.053306915	0.46913803	-0.07734697	0.3341063	-0.23391174	-0.5095263
1.167636	0.8544907	0.6918244	-0.9944131	-1.1295764	-1.1516126	1.5723836	-0.48960194	1.4097586	1.6039624	-0.4304954	-1.5694445	1.5850497	0.40871778	-1.43314	0.45539823
-0.037145324	-0.39655843	0.41188455	-0.50739413	0.40550593	0.33924112	-0.42596382	0.5247165	0.59458596	0.29034686	-0.10080166	0.093951404	0.06497083	-0.6427009	-0.027204761	0.63372296
-0.31256348	0.8481642	0.3002781	0.16412652	-0.5656763	-0.35619864	0.7439901	-0.54435164	-0.06602616	-0.20926149	0.51971835	0.14637512	-0.022300849	0.7012148	-0.21144141	-0.55054986
0.5304615	-0.09959384	-1.2281437	0.4021398	0.60495496	-0.5530753	-0.39711192	0.009496324	-0.44860005	-0.95689404	-0.6623195	0.6652128	-0.37959254	0.32146192	-0.09329265	-0.6079589
0.2324024	0.103678994	0.04687824	-0.16860375	-0.23596579	-0.20410289	0.381047	-0.023204854	0.3117217	0.4567624	-0.06677866	-0.5320663	0.45272213	0.0044818227	-0.32958898	0.11327623
-0.108766645	0.97950685	0.9938717	-0.7349057	-0.9546661	-0.28104475	1.2753314	-0.70568895	1.2256529	1.310443	0.6015429	-0.7088354	0.72767305	0.5126953	-0.70505023	0.24443245
0.054321423	0.29943386	0.2530256	-0.24083222	-0.23847188	-0.22456402	0.35332033	-0.08748716	0.30984774	0.16066411	0.1832211	-0.2357046	0.26002315	0.17887677	-0.344331	-0.10083203
-0.20848261	-0.9255532	0.026023148	0.923094	-0.01492895	0.68329185	-0.26958528	-1.1497811	-0.5850129	1.5208557	-0.3522459	-0.7426394	-0.025875954	-0.9061206	0.5569767	1.1842506
0.2984935	-0.39043534	-0.35481432	-0.16876821	0.5726879	-0.26900095	-0.36852288	0.4484817	0.21517183	-0.29313135	-0.4950665	0.0627836	0.21097267	-0.15600424	-0.26459116	-0.057533413
0.59721076	-1.1363395	-0.38318303	-0.65972835	1.1767962	0.003035184	-1.2164142	0.9610304	0.659801	-0.28401458	-0.83811533	0.25613585	0.28893602	-0.92753744	-0.24191009	0.48676026
-0.27157402	0.22455786	0.3915303	-1.9052852e-05	-0.04412521	0.12557483	0.2867942	-0.26854634	0.20379244	0.27153492	0.30867466	-0.058477975	0.020853976	0.00030461152	0.049046066	0.18872677
-0.29962468	0.21692327	0.1752888	0.30822402	-0.16240858	0.12472307	0.24147668	-0.46703616	-0.18015268	0.17914405	0.31052285	0.10804348	-0.2295654	0.02435954	0.17066406	0.06175922
0.21855052	-0.22190821	-0.04197748	-0.24732699	0.27015686	-0.11498772	-0.058230195	0.2925072	0.39281565	-0.0369269	-0.22964571	-0.13020289	0.23967615	-0.16845281	-0.20748845	0.09559054
0.92082286	-0.88589233	-1.1071694	-0.73057526	1.28198	-0.6406993	-1.1993906	1.0528984	0.5239765	-1.0003717	-1.1296092	0.49342272	0.25603727	-0.34226492	-0.57644784	-0.28415513
-0.7377874	0.2515896	0.7471396	-0.0046861563	-0.15479957	0.49941507	0.24431662	-0.2794068	0.28883767	0.5121997	0.54939723	0.62798893	-0.43462017	-0.18359125	0.3442556	0.4137443
-0.04138926	0.25298572	-0.046321828	0.021923661	0.08338455	-0.21941563	0.17197096	-0.09869739	0.01151636	-0.34244052	0.07785997	0.29359517	-0.12410648	0.28396508	-0.13159585	-0.34511065
-0.06890026	0.14341699	0.121593304	0.19627908	-0.042836428	-0.04158061	0.24776791	-0.34541875	-0.08268563	0.0405102	0.16088396	-0.017408002	-0.024673466	0.09646935	0.033114158	-0.037027523
-0.14022923	0.05771319	0.30199793	-0.10974791	0.11900229	0.054361854	0.059026513	0.008738431	0.25872898	0.12564492	0.1275	-0.03526572	0.07611345	-0.14050433	-0.06014266	0.20263618
0.35574216	0.83397937	-1.0840001	1.0785203	0.3897133	-0.80731845	0.46325183	-1.018733	-0.8457495	-0.85560083	-0.4469384	0.5692987	-0.5097093	0.9905302	-0.049639814	-0.9725415
-0.10273251	0.10007924	-0.9719075	1.1388428	0.14400893	-0.15391733	-0.014467025	-1.1785399	-1.0815375	-0.44791818	-0.329525	0.40986916	-0.5206417	0.34130052	0.342692	-0.3210919
0.38721845	1.0109551	0.59694326	-0.054557405	-0.7450835	-0.76811516	1.6353661	-1.0266154	0.9769034	1.3276662	0.3820793	-1.3465773	1.1950597	0.50733256	-0.991886	0.47114524
-0.38568434	-0.044611476	0.38117546	-0.11032644	0.23578829	0.3437333	-0.057217427	0.17690101	0.23906517	0.010693698	0.2236694	0.6159093	-0.33143932	-0.22513269	0.16871446	0.21702468
0.5104572	0.9266883	-1.602773	0.93256104	0.55472064	-1.2037369	0.082077414	-0.47726193	-0.9968781	-1.4698468	-0.5247039	1.4853594	-1.2110347	1.2848119	-0.10227963	-1.504126
0.5975192	-0.11782581	0.20111951	-0.31549713	-0.22784677	-0.35725164	0.50454026	-0.029712865	0.6437029	0.8971477	-0.4083124	-1.0245339	0.92230195	-0.20392291	-0.60001874	0.47444263
-0.5278527	0.37638274	0.5686834	-0.07159744	0.14514562	0.14379455	0.26476237	-0.15686266	0.3500503	0.038882863	0.5137502	0.550114	-0.22870483	-0.0057373676	-0.019025583	0.030033303
0.48697397	0.19734451	-0.1941392	-0.12967268	0.030769605	-0.65105313	0.25448313	0.08572331	0.24402837	-0.29040003	-0.22664747	-0.14851959	0.32833514	0.43853587	-0.6104265	-0.4335121
-0.053482708	-0.58575326	-0.35317326	0.2416659	0.6859881	0.27912772	-0.62962234	0.060354877	-0.21206914	-0.07034493	-0.31987688	0.36313584	-0.30888912	-0.47784397	0.28638324	0.4138196
-0.44451204	0.43870008	0.161304	0.15279396	0.1148312	0.04868583	0.0669375	-0.1306662	-0.12143265	-0.5868894	0.40083033	1.177964	-0.6803957	0.31066984	0.21560544	-0.43243834
-0.087228626	0.6083486	-0.62245405	0.6008231	0.13730451	-0.4996458	0.1849952	-0.36370265	-0.63452756	-0.88921297	0.02680942	0.84032077	-0.6563863	0.8052753	0.081278965	-0.9669489
0.3209216	-0.5039175	0.5370603	-1.0695015	0.5657535	0.15784414	-0.5426828	0.92262316	1.1063544	0.12916008	-0.3060938	-0.09840669	0.6044949	-0.8233287	-0.45702738	0.7651271
-0.47063214	0.3636505	0.45620644	-0.006965809	-0.10271867	0.20422754	0.24540475	-0.12079426	0.17889583	-0.010379251	0.40956926	0.57313395	-0.29662797	0.08006481	0.12903185	-0.0134213995
-0.29236042	-0.0015647538	-0.14581081	0.44127455	0.21759465	0.17882477	-0.08061766	-0.2847698	-0.45493102	-0.15778099	0.062040456	0.41546538	-0.4601692	0.018011857	0.3641709	0.0025187612
0.5341493	0.35095033	-0.28479818	-0.1605335	-0.19302204	-0.7906509	0.58887184	-0.12032263	0.2987581	0.07431772	-0.20864613	-0.5378565	0.54345644	0.4667739	-0.6501571	-0.3268927
-0.39563048	-0.37156084	-0.21238516	0.6558132	0.23465076	0.4457252	-0.23853877	-0.5360542	-0.5104976	0.35782832	0.02490353	0.12523286	-0.4662255	-0.373393	0.5076819	0.4229299
0.05685179	0.039160777	-0.38405624	0.18079834	0.5109149	-0.24574049	-0.24742343	0.04885863	-0.28488106	-0.72591335	-0.2011478	0.8595904	-0.48323622	0.35470912	0.08390039	-0.5157414
0.10271727	0.42516157	0.00612926	-0.11502169	-0.02160076	-0.5667404	0.3186832	-0.025373133	0.18013506	-0.36762005	0.06594833	0.010128218	0.12058169	0.5037628	-0.40613273	-0.5203226
0.595294	0.5432783	-0.09723789	-0.1270648	-0.355192	-0.7029448	1.1691611	-0.58932084	0.57534975	0.7762496	-0.21339865	-0.9999366	0.9249556	0.40525842	-0.83303	0.108421504
0.19731309	-0.14976428	0.20647414	-0.54062635	0.322398	-0.111715	-0.18987353	0.5064217	0.6293156	-0.17195453	-0.11856774	0.087107606	0.22877565	-0.1552413	-0.41259483	0.05905008
0.2397113	-0.08566291	-0.030377585	-0.2054155	0.15293363	-0.16705813	0.04593831	0.14600407	0.2636019	0.03497752	-0.16935188	-0.28637278	0.33781072	-0.10420145	-0.3197775	0.09974199
0.5859662	0.4218389	-0.41660625	0.043051478	-0.1445665	-0.8108011	0.5257204	-0.1560906	0.048992943	-0.27060434	-0.26434466	-0.2788167	0.359386	0.59609944	-0.59640396	-0.6458661
0.64748824	0.479751	0.8604126	-0.21127345	-0.94110537	-0.4767364	1.2032944	-0.9263247	0.7525087	1.6014888	-0.1815103	-1.3058753	1.0631453	0.09866343	-0.6649264	0.5078383
0.04417568	-0.019667055	-0.509498	0.5891257	0.10063888	-0.102677435	0.17134832	-0.5593448	-0.37627193	0.107185766	-0.09244393	-0.24683	-0.071702614	0.15677884	0.19194682	-0.018390931
0.22268607	0.0016582996	-0.59609234	0.48236758	-0.13756628	-0.15043631	0.28393292	-0.7070052	-0.41712305	0.15819904	-0.2407044	-0.3738244	0.109360345	0.054674126	0.02752497	0.01338178
-0.26104486	-0.24400873	0.2749091	0.07713071	0.2314895	0.30688295	-0.15203872	-0.022395384	0.13308693	0.41543874	0.13904327	0.0022861338	-0.115615785	-0.414601	0.20332134	0.5463285
0.35464785	0.8023225	-0.92366606	0.7982884	-0.2549217	-0.65414095	0.665402	-1.1426733	-0.7621613	-0.435349	-0.25435513	-0.017389322	-0.05772703	0.8195089	-0.20315029	-0.67548156
0.65925723	1.0009252	0.45882908	-0.14135481	-0.4887027	-0.7789618	1.4652022	-1.0392259	1.0503528	1.4107063	0.084215194	-1.2812306	1.1973519	0.34148896	-0.9994661	0.6542929
0.6259834	-0.15610702	-0.20889685	-0.49430117	-0.0276145	-0.5999926	0.33887777	0.21542506	0.64363194	0.46875378	-0.3848508	-0.7215093	0.82290953	-0.008691955	-0.72632945	0.09479566
0.13608682	0.09298633	-0.907737	0.10665801	0.35067427	-0.5106464	-0.24000986	0.13203125	-0.19768652	-0.9065521	-0.20258427	0.8819137	-0.35901976	0.32537505	-0.052213542	-0.71583325
-0.2858708	-0.50365835	-0.20995395	0.6788881	0.19989474	0.4700114	-0.29111078	-0.57361656	-0.50797874	0.5794327	-0.18267001	-0.15007596	-0.3330454	-0.55010885	0.45861873	0.61959237
-0.30287737	-0.29148802	0.029666433	0.2544078	0.34423777	0.35312	-0.23094146	-0.11151824	-0.20663567	0.21728943	0.052122403	0.13018686	-0.27914667	-0.36992776	0.3372093	0.40590233
0.41092375	0.58008766	-1.4371637	0.7567883	0.34181356	-0.8304356	0.045710895	-0.43207002	-0.93017393	-1.1139117	-0.5345326	0.6592144	-0.5564694	0.9392977	-0.04452409	-1.1329099
0.51836604	-0.22722758	-0.29255152	-0.35212857	0.33537737	-0.42402163	-0.11633465	0.32624972	0.44642767	-0.11607269	-0.45397788	-0.30935985	0.43164742	-0.0211244	-0.5361663	-0.13139124
-0.22894229	0.21095341	0.57386357	-0.07148106	-0.2116071	0.11223952	0.35060284	-0.2123029	0.4543764	0.7566041	0.28690198	-0.28449866	0.20615982	-0.18744151	-0.08897855	0.45753834
0.28995398	-0.22337554	-0.13375159	-0.14023319	0.12949526	-0.17833109	-0.05778553	0.1465121	0.2361886	0.16646606	-0.25428638	-0.32661736	0.35024235	-0.10874707	-0.25910565	0.072406545
-0.40740332	0.28396842	0.6898281	-0.22855255	-0.038458813	0.22577845	0.25167495	-0.019762017	0.33867648	0.050360825	0.4644772	0.45237207	-0.13567632	0.035507172	0.028921679	0.13958338
-0.07383264	-0.00901948	0.70042896	-1.0230303	0.455073	0.009828853	-0.18870509	0.656692	1.119207	-0.3985483	0.054066323	0.9451122	0.38028264	-0.41221794	-0.5892936	0.21196343
-0.069011964	0.32748482	-0.104230694	0.022197211	0.23542653	-0.27535176	0.09537313	-0.026851326	-0.02882614	-0.5675595	0.1272518	0.5450178	-0.22704297	0.5182564	-0.11433351	-0.6424366
0.08490943	-0.13228068	0.057626683	-0.091662474	0.046814423	-0.033472043	-0.04180011	0.0780608	0.26195604	0.11213806	-0.055989653	-0.100863956	0.13181144	-0.13378121	-0.13771667	0.0740531
-0.1390519	0.17624891	0.1920697	-0.03454461	0.12629145	0.024835693	0.1114472	-0.034514885	0.121031426	-0.22467686	0.17362428	0.3490505	-0.09133365	0.08199199	-0.070370495	-0.10081168
-0.6482683	0.065276764	0.37962753	0.5946965	-0.11107734	0.43341362	0.10089316	-0.7256262	-0.36163855	0.24829036	0.47893098	0.4078128	-0.54362416	-0.07046169	0.5117052	0.26723003
0.5990182	0.21221966	-0.50090486	0.069990985	-0.016567862	-0.6438783	0.28388283	-0.097104535	-0.02204664	-0.25303367	-0.4002369	-0.19343293	0.35931587	0.45731735	-0.5077224	-0.4826088
0.16236639	0.8077363	-1.5107479	0.85047776	0.2871035	-1.0964812	0.2235407	-0.52885634	-0.89142567	-1.4765174	-0.2223458	1.3735889	-1.076308	1.2018507	0.09566192	-1.4396591
0.38621813	-0.11666832	-0.05399952	-0.09879274	-0.13248168	-0.19137189	0.23725247	-0.09158245	0.3105949	0.5175222	-0.28341976	-0.62500966	0.46261382	-0.16761206	-0.35546884	0.1900455
-0.26358974	0.1497744	0.6884198	-0.36272296	0.05712561	0.19061652	0.16508968	0.13407433	0.55449796	0.36438265	0.22898504	0.09003121	0.08869116	-0.2204971	-0.07847163	0.33964768
-0.72306883	0.5556178	0.51973933	0.16160251	-0.091365576	0.21598643	0.40351367	-0.3765769	0.046872765	-0.096522346	0.5906935	0.6577739	-0.49972185	0.35229933	0.2966117	-0.2225317
-0.32540712	-0.25150016	-0.37730032	0.80112875	0.41189322	0.17940608	-0.29616064	-0.6241445	-0.6945817	-0.13966285	0.00023447422	0.5035413	-0.65230805	-0.0852273	0.55772233	0.13073076
0.2755716	0.18552314	0.17844257	-0.43228903	-0.058166258	-0.45502824	0.2991129	0.16364111	0.5379982	-0.01698615	-0.05310577	-0.2774079	0.48226818	0.14363034	-0.57522804	-0.26285264
0.47304866	1.2635336	-1.0159551	0.78323346	-0.3000605	-1.2175899	1.1305529	-0.9884675	-0.6052297	-0.44727987	-0.18548499	-0.18157047	0.10995287	1.259311	-0.5932188	-1.1039318
-0.53311557	0.4251097	0.48993778	0.014435988	0.024962561	0.053708695	0.3704846	-0.19612579	0.23409183	-0.09195926	0.51543444	0.72986066	-0.33542323	0.17178719	0.09492942	-0.12090074
-0.23277044	-0.08736086	-0.10791342	0.12944376	0.41921228	0.110929474	-0.26033422	0.06074882	-0.08968831	-0.32613638	-0.0464765	0.6251225	-0.3805729	-0.08532969	0.18694554	0.037306506
-0.5798835	0.15625542	0.68729234	-0.03793699	-0.08233083	0.47032562	0.21907125	-0.19971581	0.30380034	0.49983373	0.46548745	0.3261256	-0.28260818	-0.22144721	0.27753854	0.42594585
-0.0716307	-0.46440658	-0.05106136	-0.09014171	0.48388472	0.29045412	-0.5316716	0.27259517	0.17082717	0.040799655	-0.20094043	0.2331091	-0.15143934	-0.42656448	0.20171829	0.3633164
0.8350552	1.3638909	0.8423841	-0.52989644	-1.060454	-0.9216314	1.7496867	-1.1695697	1.3291178	1.6634595	0.13062163	-1.523798	1.5056361	0.5845088	-1.2230874	0.7646148
-0.8141959	0.82264614	1.0187964	0.12947397	-0.58233595	0.4612644	0.8511856	-0.8302705	0.38490328	0.7896399	0.89022994	0.268061	-0.16780679	0.23518825	0.2217754	0.2860396
0.26563707	0.007872722	0.33500218	-0.3035504	-0.096188925	-0.20001453	0.27292755	0.11101722	0.5264188	0.46698502	-0.059310295	-0.5219324	0.57317626	-0.18513171	-0.40513077	0.23245065
-0.24400212	0.038583186	-0.22996025	0.67170185	0.08627232	0.027278591	0.020704327	-0.6940984	-0.6423687	-0.13549723	0.09923711	0.23594257	-0.4066018	0.065480866	0.30762523	-0.00521553
-0.6025951	0.59765476	0.7807232	-0.11846714	-0.19997612	0.19073652	0.48243123	-0.3409638	0.3825145	0.105408326	0.677088	0.6123106	-0.26608205	0.16693634	0.04676155	-0.03305282
-0.2939595	0.022593975	0.41626942	-0.03672696	0.09955259	0.20856574	0.11373339	-0.17470326	0.25567836	0.36853418	0.20199016	0.04776382	-0.00691953	-0.29403865	0.059964377	0.42179668
-0.86437744	1.2016717	0.72473615	0.44315627	-0.5632526	0.04450026	1.0295179	-1.0372368	-0.102369666	-0.32041362	0.8648422	1.2947431	-0.9994987	1.0393789	0.2738972	-0.79467636
-0.45255423	0.18086459	0.46716908	0.09326423	-0.1795707	0.24567387	0.23418103	-0.30946228	0.112063475	0.23100832	0.46512535	0.1685921	-0.19787055	-0.0375634	0.16322152	0.17840853
0.64901924	-0.43837216	-0.6240112	-0.5838145	0.6177603	-0.62934107	-0.54762	0.6680257	0.44186357	-0.7724377	-0.64498574	0.22540489	0.33530334	-0.055027813	-0.5530194	-0.4927721
-0.548624	0.50286365	0.70135033	-0.35272834	0.12058557	0.053010207	0.37456673	-0.04797958	0.64574826	-0.16746245	0.50912285	0.91966856	-0.22390793	0.0783297	-0.19240004	-0.2561069
0.94390345	-1.22655	-0.76612234	-0.9101761	1.0887046	-0.30381456	-1.1834652	1.1525929	0.8078901	-0.70903176	-1.005522	0.28296962	0.62880975	-1.0830969	-0.55844134	0.49326
-0.4043736	0.1849686	0.5661175	0.06589537	-0.14081755	0.28799808	0.293089	-0.2901139	0.16944815	0.46381643	0.41149542	0.055258244	-0.14251408	-0.14868632	0.1471061	0.27246827
-0.59011054	0.71087825	0.7101614	-0.03839827	-0.5663906	0.14566621	0.7553797	-0.62864286	0.23039156	0.29836905	0.6572063	0.09631767	-0.03746753	0.35709098	0.010824969	-0.11813431
-0.46663645	0.7711975	0.39753324	0.11740463	-0.14374755	-0.1375979	0.5393558	-0.3484387	-0.05194246	-0.52276856	0.5064093	1.189412	-0.74913776	0.69983906	-0.0026072909	-0.6767715
0.8435399	0.73068684	0.26482394	-0.35538724	-1.0286365	-0.83170986	1.3045856	-0.6599331	0.7323867	1.2709442	-0.31789204	-1.3096594	1.1769301	0.49479926	-0.9607716	0.092769146
0.7191901	0.8605879	-1.4733542	1.0775831	0.5037948	-1.0939962	0.22140525	-0.70747405	-1.1595639	-1.3352511	-0.6480388	1.2746768	-1.0768967	1.1601741	-0.22185847	-1.4077872
0.06893802	-0.19369088	-0.5592815	0.39857092	0.21505412	-0.029060187	-0.13491811	-0.22210777	-0.30066925	0.045786235	-0.26227543	-0.021697083	-0.14900944	-0.051621966	0.09334572	0.099062674
0.41091517	-0.5552414	0.32001248	-0.657786	0.29235178	-0.18850389	-0.24737467	0.565686	0.7538147	0.445103	-0.43429118	-0.56219584	0.70113105	-0.6678054	-0.47785664	0.60297394
0.5142398	0.5863436	-0.6380649	0.349893	0.28282863	-0.8873197	0.4006352	-0.27569512	-0.2539651	-0.66539335	-0.22023103	0.24900945	0.0045660036	0.7475841	-0.50543684	-0.79290104
-0.2508476	0.20055726	0.23865223	-0.013079802	0.029481672	0.06477626	0.17224719	-0.12237519	0.09387157	0.004584534	0.20359306	0.18169439	-0.13131222	0.044995006	-0.01460962	-0.0210322
0.36767653	0.7153311	-0.30913794	0.1969387	-0.39469835	-0.7593126	1.0000792	-0.7597488	0.17376418	0.5001267	-0.034054246	-0.7191747	0.5965739	0.6941274	-0.57137454	-0.20725657
-0.20531452	0.4209763	-0.03525265	0.5204969	-0.09967193	-0.15000741	0.3475242	-0.5684688	-0.38831264	-0.29954895	0.27397734	0.3527855	-0.32955012	0.48138335	0.10746876	-0.3646164
0.45737886	-0.51449275	0.10403948	-0.42681372	0.001812262	-0.0012155509	-0.1707524	0.3521986	0.58590627	0.67581433	-0.4215456	-0.604922	0.6025314	-0.61610395	-0.30681828	0.6629831
0.6148106	0.094444096	-0.6436455	0.20591532	-0.114711426	-0.4990984	0.41843733	-0.43148404	0.031640764	0.4478148	-0.6451016	-0.56126064	0.44695854	0.33772108	-0.41019592	-0.22111008
-0.20903143	-0.20928234	-0.3188836	0.23371887	0.47829086	0.18930976	-0.32410857	-0.0035257721	-0.2642867	-0.35461947	-0.11145745	0.47175857	-0.44862548	-0.11800059	0.29209143	0.012973584
-0.23048185	0.44092605	0.18359287	0.0012407296	-0.18119134	-0.17658933	0.38998932	-0.2294145	0.08028487	-0.18550028	0.33507186	0.16483471	-0.05372162	0.36049238	-0.098220155	-0.319652
0.43990207	0.51579297	-0.4907398	0.07974321	0.0677391	-0.74430877	0.38470143	-0.15900026	-0.14832556	-0.5667124	-0.26637036	-0.029330289	0.206738	0.72489625	-0.5697954	-0.78028387
0.71491027	-0.37952635	-0.30173716	-0.62979347	0.21015762	-0.47429743	-0.29249924	0.5755124	0.6602212	-0.003580793	-0.51390266	-0.43598834	0.6867875	-0.23632674	-0.62938505	0.03153611
0.01215531	0.35154095	0.4542571	-0.0023198267	-0.6792002	0.05121468	0.77006584	-0.67952013	0.320577	0.90117574	0.31700477	-0.71160835	0.4719179	0.03248459	-0.19299743	0.33959326
-0.84371036	0.8658709	1.0232465	-0.27625102	-0.5269869	0.48070747	0.87249506	-0.6910341	0.6692059	0.545369	0.9116037	0.63886017	-0.3393213	0.33118933	0.17351663	-0.0055780993
-0.22367181	0.15534498	-0.046730448	0.18941782	0.26701555	0.037358604	-0.05539988	-0.12908179	-0.20099173	-0.346973	0.13421845	0.47438586	-0.39070788	0.1516044	0.13311113	-0.24525248
-0.33548024	0.30206183	0.14820874	0.106596194	-0.0053042243	0.03038183	0.12712753	-0.18165845	-0.17286761	-0.39538658	0.35209727	0.8850351	-0.52345693	0.3160524	0.21765634	-0.30213484
-0.121858045	0.007880239	0.044831913	0.13496669	0.0026585974	0.16723514	0.08867917	-0.1944586	-0.077281825	0.27076238	0.12527822	-0.114591084	-0.05618568	-0.045308903	0.1904823	0.17245711
0.34939587	0.06488317	-0.5235668	-0.18224393	0.5032376	-0.58980364	-0.28398275	0.37109393	0.04810837	-0.9172164	-0.2762025	0.6783184	-0.13067506	0.41107196	-0.36748618	-0.7106859
0.41699746	-0.08680321	0.003652873	-0.23961765	-0.22579636	-0.26918688	0.35297233	0.030994775	0.41918996	0.56419724	-0.3006034	-0.6958006	0.6627614	-0.15001029	-0.45474344	0.31822798
-0.009627931	-0.122136645	0.15081899	-0.03103926	0.18079776	-0.036451563	-0.09815702	0.04817515	0.14853711	-0.010254258	-0.091282345	0.04559587	0.058316685	-0.16985466	-0.0009506665	0.15279707
-0.12507762	0.21151881	0.30663615	0.14194159	-0.3289223	0.04939243	0.39113802	-0.3556063	-0.0104012415	0.29866582	0.26954085	-0.24375963	0.13136591	-0.0054179323	0.046072427	0.1316067
0.20868497	0.19386703	0.16795103	-0.18858747	-0.12390931	-0.19261715	0.37025222	-0.05468248	0.29980993	0.28698656	0.02441404	-0.44010508	0.35147458	0.12678885	-0.33920774	-0.036567125
-0.70428675	0.34774113	0.69317275	0.3760146	-0.32403582	0.5324593	0.40402743	-0.70389134	-0.057409056	0.5481652	0.69170076	0.17985652	-0.39627844	-0.05791579	0.41217798	0.43978626
-0.030897826	0.17064296	-0.018332686	0.044737734	-0.060903408	-0.07458894	0.08710259	-0.083268315	-0.102421775	-0.24057364	0.0905367	0.15704899	-0.056492995	0.14847708	-0.08058016	-0.24179214
0.1326846	-0.011678197	-0.38437364	0.33833298	0.23763554	-0.21234742	0.026642434	-0.24269363	-0.18493465	-0.20848526	-0.17107648	0.049895488	0.013899856	0.18870084	-0.02122707	-0.22779454
-0.53067887	0.11439008	0.38433665	0.27255586	-0.018424336	0.33194825	0.10710841	-0.38637498	-0.13130581	0.27856186	0.4106985	0.16052386	-0.3005427	-0.100033596	0.29117486	0.30028844
-0.13286515	0.26591185	0.13047653	-0.12358465	0.06743976	-0.03350496	0.1110156	0.02076356	0.14506222	-0.27657235	0.23346505	0.3014609	-0.13836354	0.24700072	-0.0894538	-0.266766
0.46722013	0.10640086	-1.2500064	0.12416166	0.4981367	-0.825874	-0.25975308	0.106142946	-0.31506813	-1.0635867	-0.54476434	0.6327789	-0.28071925	0.5033316	-0.23228243	-0.8927566
0.08644835	-0.8410861	-0.87905675	0.16355579	0.97936594	0.33572462	-1.0205543	0.36211666	-0.15017562	-0.13571922	-0.6164517	0.4848808	-0.37210342	-0.4938862	0.36448517	0.42799047
0.5276967	-0.042135533	-0.46215197	-0.2611394	0.26007912	-0.4985372	-0.012308001	0.27015653	0.26904348	-0.23911765	-0.45082924	-0.22923309	0.3331814	0.1186391	-0.42467764	-0.25676912
0.86241156	1.049557	0.46979907	-0.5561794	-1.1381577	-0.89923304	1.5158324	-0.8704588	1.0406041	1.4434665	-0.26654372	-1.327025	1.312005	0.5126779	-1.1590122	0.30175072
0.5945768	0.09231742	-0.032833766	-0.51944035	-0.41971946	-0.58225733	0.50831443	0.08759235	0.6063297	0.5422759	-0.27954686	-0.7333157	0.8064225	0.11627381	-0.7095706	0.0019896454
0.16936664	-0.15572278	-0.43643248	0.0041013006	0.4692158	-0.1994282	-0.31369108	0.2621961	-0.044258952	-0.4960744	-0.26993775	0.42495292	-0.1712582	0.06407457	-0.050905358	-0.24546078
0.0040341583	-0.06468608	0.064083695	-0.15817368	0.08100671	-0.03353216	0.010004938	0.098070115	0.22632259	0.22602363	-0.016731055	-0.16716169	0.24309997	-0.13292262	-0.10252814	0.17092755
-0.1232412	-0.06816841	0.19414085	-0.017028965	0.14693032	0.2049984	0.024217151	-0.04878796	0.114461936	0.19706269	0.15095408	-0.022110572	-0.021172686	-0.18281746	0.055797815	0.25797436
0.41045398	-0.4638833	-0.26483795	-0.14218259	0.22318096	-0.11701473	-0.20872866	0.18892068	0.28283122	0.28303978	-0.51415056	-0.45670757	0.36639085	-0.4213632	-0.18828991	0.34023684
-0.037528858	0.2860368	0.40372312	-0.39966056	-0.09727446	-0.08592274	0.29159853	0.08842946	0.43710074	0.1260027	0.19235264	-0.020904109	0.2022754	0.028065415	-0.27724862	-0.028155971
0.36247948	0.05153215	-0.0023713817	-0.071597144	-0.061407942	-0.2738476	0.5766639	-0.20624888	0.45065483	0.68824285	-0.14337614	-0.7915154	0.6557434	-0.009291044	-0.45015702	0.3297153
0.29590893	0.3279624	-0.80039847	0.46304438	-0.0077495864	-0.58083975	0.15935038	-0.28080443	-0.46156642	-0.61533695	-0.20587078	0.30579838	-0.26218265	0.57944447	-0.09820624	-0.679638
-0.64268035	0.40164128	0.6376411	-0.34107414	-0.10113846	0.43895444	0.31304073	-0.1612908	0.6308172	0.0392654	0.57461864	0.91085863	-0.65307647	-0.014517885	0.17468104	0.076758
0.7303897	0.51501304	-0.038635712	-0.24739817	-0.54639316	-0.7441002	0.9532795	-0.3997683	0.5536166	0.799462	-0.35469356	-0.9382845	0.8825345	0.38540232	-0.8756794	0.016171876
0.15515587	-0.43363857	-0.14856617	0.26204845	0.13777155	0.11152859	-0.2064975	-0.12003327	0.005248766	1.1138234	-0.7268331	-0.41269684	0.03305531	-0.4190367	0.102601774	0.44411573
0.27258074	-0.17664091	-0.6384517	0.26894128	0.22130296	-0.16775545	-0.15605883	-0.116231225	-0.16233881	-0.15293889	-0.46143773	-0.13407919	0.08033436	0.04077094	-0.021263516	-0.045429632
-0.1569939	0.08733929	0.008491105	0.27378267	-0.08590538	0.049335983	0.15134779	-0.31758013	-0.13450328	0.20318611	0.14460395	-0.070452124	-0.048822988	0.022786036	0.07201944	0.12734294
0.007754312	0.33152103	-1.0965791	0.7795374	0.07488738	-0.40502155	0.096149914	-0.63258517	-0.8354616	-0.7692073	-0.09828101	0.65633386	-0.6010934	0.6072118	0.23671846	-0.6565785
-0.65294933	-0.9040569	0.020674419	0.8788352	0.62867594	0.8606195	-0.6963298	-0.62086225	-0.6437043	1.2262607	-0.05438655	0.20291388	-0.6152789	-0.9525435	0.79890484	1.1950002
-0.066692635	-0.056455005	0.37601995	-0.34866366	0.3178628	0.2106403	-0.16070078	0.29072797	0.44406763	0.23716919	0.07687877	0.06913735	0.12930688	-0.333505	-0.09425486	0.32948807
-0.64997065	0.12381368	0.31861237	0.38283122	0.114730716	0.47175586	0.0066767735	-0.39245707	-0.28384125	0.1320812	0.41181272	0.6404927	-0.5635389	-0.15916245	0.4856352	0.20631105
-0.345046	0.77819073	0.8143705	-0.53247565	-0.59942657	-0.053869624	0.8404829	-0.33860514	0.81133926	0.6893563	0.5588449	-0.23109524	0.36869815	0.4644122	-0.41499677	-0.06162864
0.17450052	-0.0013874441	-0.5344649	0.33509985	0.19496338	-0.2035062	-0.038588922	-0.25172937	-0.33229756	-0.28206065	-0.23384483	0.16988805	-0.14720859	0.19419524	0.023158878	-0.27627593
0.47916603	-0.38702682	-0.48137382	-0.415728	0.55322087	-0.40963176	-0.61290693	0.5856204	0.30765352	-0.67546624	-0.4158009	0.53982276	0.15821622	-0.18262963	-0.31508008	-0.28203002
0.6110774	0.9469058	-0.09652028	-0.048232507	-0.75834024	-0.838138	1.1320417	-0.7205196	0.16284215	0.4880903	0.06525983	-0.75075793	0.7771623	0.67507446	-0.7407265	-0.3134518
0.68181664	-0.527705	-0.7645021	-0.47664928	0.604017	-0.4652669	-0.5926746	0.59492433	0.44118953	-0.45977774	-0.66406256	-0.073333845	0.28386673	-0.25659978	-0.44045544	-0.066901006
0.021148412	0.29670814	0.21085568	-0.31880838	-0.054692507	-0.2471525	0.23813093	0.1196284	0.3070318	-0.325175	0.17537537	0.22089046	0.108639486	0.3195918	-0.30095676	-0.36511958
-0.08115251	-0.65501094	-0.18908823	0.14462578	0.66570973	0.31754094	-0.62956953	0.20585524	-0.08753157	0.06742079	-0.30494037	0.40934017	-0.35543042	-0.58905834	0.33852246	0.5514757
-0.5868043	0.15620457	0.65199393	0.1047341	-0.09859385	0.47743812	0.13637936	-0.32075003	0.15896063	0.48899853	0.5018245	0.37872785	-0.38944417	-0.2043415	0.3863178	0.43925226
-0.36034948	0.478056	0.57781196	-0.22255021	0.07943094	-0.057407446	0.4615307	-0.12681252	0.4544337	-0.091522284	0.48415312	0.34998706	-0.010060616	0.3122402	-0.30571562	-0.22446811
0.031723965	0.2087462	-0.22535706	0.39382905	0.14861067	-0.27020594	0.09699958	-0.35654873	-0.23270983	-0.35125485	-0.03183861	0.22243844	-0.21623069	0.26985785	0.0031803325	-0.3222338
-0.36614478	-0.38091096	0.2225502	0.23911592	0.35805264	0.4493183	-0.37595254	0.0002846834	-0.077546544	0.3120787	0.08933335	0.2057874	-0.31346884	-0.43308026	0.3976288	0.5004469
0.9657945	-0.5724763	-0.67318493	-0.67284894	0.5952976	-0.6289818	-0.64887345	0.7399134	0.5844411	-0.46198994	-0.79668134	-0.07726052	0.5606112	-0.1874478	-0.81257826	-0.31333923
0.05493179	0.07795514	0.26081088	-0.20418496	-0.11689072	-0.15574242	0.2420092	0.02871183	0.35654896	0.23051381	0.020998312	-0.31727344	0.30230376	-0.013895463	-0.2044877	0.048820145
0.31822518	0.11162034	-0.9254443	0.44847167	0.673436	-0.4901532	-0.2901639	-0.086276084	-0.5270478	-0.7541223	-0.5612288	0.8146452	-0.5057854	0.5001247	0.06791885	-0.58878845
-0.55930686	0.41343614	0.79502654	0.15736675	-0.31328943	0.32597315	0.5126709	-0.5901694	0.3585976	0.76442206	0.5449593	0.068137996	-0.03096869	-0.1189861	0.20972829	0.46938115
-1.1469549	1.0434636	1.1378536	-0.38401318	-0.6637377	0.73868877	1.0217266	-0.73538655	0.8602662	0.634033	1.0494494	0.98164296	-0.76295364	0.4795431	0.26156837	-0.14457594
0.7674647	-0.6524406	-0.88534856	-0.64528173	0.6891416	-0.7294269	-0.79426587	0.6851426	0.50493175	-0.75040215	-0.7486423	0.30292454	0.4385014	-0.35955456	-0.63623196	-0.34688523
0.5469223	0.38103646	0.23298503	-0.21907242	-0.041887112	-0.46089968	0.84734935	-0.38220245	0.87318015	0.9143679	-0.13893859	-0.9231334	0.8840083	0.0054365303	-0.8192284	0.5921122
-0.026023146	-0.024354838	-0.20938775	0.11107907	0.29994127	-0.064047046	-0.09897649	-0.015776785	-0.07904942	-0.29836965	-0.12652986	0.2513441	-0.21366034	0.08224536	0.045107905	-0.15785179
-0.24638319	-0.047777083	0.010309366	0.21219453	0.5095046	0.065061636	-0.2227429	-0.06600707	-0.1415498	-0.32025138	0.024349825	0.7631644	-0.4864906	-0.03992235	0.21544412	-0.06496361
0.6743759	-0.35129902	-0.81362325	-0.21221243	0.61172146	-0.59640527	-0.59708273	0.46884355	0.2183053	-0.69609886	-0.70792085	0.34652498	0.08951765	0.04337735	-0.42126068	-0.32421118
0.37425393	-0.4611685	-0.26603252	-0.118396595	0.40088037	-0.07595156	-0.31218272	0.33947307	0.22338663	0.084945776	-0.5312362	-0.23320463	0.23285569	-0.35825476	-0.16837622	0.26146945
0.064342864	0.18387784	0.0020579528	-0.09699447	0.023095328	-0.2548785	0.16289298	-0.0431493	0.13051598	-0.16178195	0.042684983	0.02278046	0.11678517	0.14713559	-0.2808578	-0.1994996
-0.33748466	-0.062838376	0.029222729	0.48051575	0.076979645	0.27293947	-0.05860034	-0.4114119	-0.37206098	0.052646253	0.14082192	0.2689516	-0.43161404	-0.13175572	0.29916134	0.11199121
0.567014	0.73701227	-1.0141666	0.71659833	0.36497927	-0.8977206	0.1867589	-0.49788865	-0.77501005	-0.9724296	-0.5995528	0.8160224	-0.6026378	0.9265711	-0.38344046	-1.0766894
0.124472484	-0.7139787	-0.77228177	0.11852013	0.718779	0.116956934	-0.7134551	0.26557264	-0.115869455	-0.17952527	-0.52758867	0.24100421	-0.19897759	-0.38994542	0.16301236	0.24629214
0.5640408	-0.47054344	-0.49280778	-0.39804256	0.5413069	-0.38708183	-0.45214906	0.5374974	0.42224267	-0.33154014	-0.6551676	-0.12726629	0.33228764	-0.23836276	-0.39761734	-0.102114975
-0.43765017	0.20525631	0.45969984	0.14124477	-0.1374175	0.2693084	0.26167345	-0.29098976	0.048730027	0.22908445	0.43096054	0.19937418	-0.18430173	0.004036412	0.21203749	0.13834974
0.87244564	-1.1997116	-0.88574743	-0.9369355	1.1275662	-0.2722316	-1.2369422	1.1089653	0.82450205	-0.59435284	-1.0297775	0.10831706	0.60733706	-1.0353944	-0.57665205	0.48460752
0.29073837	0.94226456	-1.1642221	0.9741585	0.36706161	-0.8764209	0.406081	-0.817001	-0.9305027	-0.9875843	-0.35198206	0.6763222	-0.6842531	0.9916056	-0.08763198	-1.1425354
-0.40777388	0.05030987	0.41303933	-0.082317114	0.045756295	0.3774511	0.029700683	0.024263803	0.18021521	0.24594973	0.28338745	0.3243095	-0.19104391	-0.22810633	0.19469257	0.30106667
0.98667747	-0.86232275	-0.86856484	-0.89284456	0.8892501	-0.7929208	-0.9765464	1.0431101	0.73435986	-0.8202582	-0.9602356	0.046191398	0.7443748	-0.60536283	-0.8826602	-0.32164958
-0.030480016	0.21248709	-0.053350996	0.17965803	-0.0765037	-0.21406579	0.22629032	-0.14472252	-0.15071675	-0.22256874	0.035187684	0.15901542	-0.098523006	0.3277128	-0.042856324	-0.30163106
-0.1185597	0.17904845	-0.086164884	0.26365662	0.20371357	-0.082849644	0.1462705	-0.3264006	-0.18089955	-0.18171524	0.035642978	0.124484435	-0.16475771	0.11715524	0.04223505	-0.12734523
0.7836821	0.9190404	-1.4189779	1.0577604	0.6197313	-1.0977036	0.090945505	-0.6000179	-1.1807986	-1.3108798	-0.88131785	1.1481372	-0.8884206	1.222654	-0.27992117	-1.3289149
-0.3053699	0.46725556	0.4811963	0.09109632	-0.36842427	0.06614495	0.42131442	-0.3521603	0.10672111	0.08252086	0.44513592	0.14948761	-0.09068641	0.27946424	0.05019847	-0.06163159
0.39351898	-0.38116592	-0.2205671	-0.18037853	0.0550102	-0.13538167	-0.06850609	0.13169087	0.27221963	0.2526416	-0.3594633	-0.47870862	0.41973594	-0.3513841	-0.19328903	0.27668887
0.24663885	-0.1853985	-0.26003826	-0.15054117	0.36788163	-0.19807109	-0.2880489	0.23573463	0.12671132	-0.2864053	-0.35932884	0.059942737	0.14253898	-0.018657349	-0.16142458	-0.06527781
0.1184356	-0.06415275	-0.64412177	0.46327388	0.31325394	-0.1752172	-0.17548399	-0.20562197	-0.43826625	-0.42811543	-0.29345015	0.34761977	-0.37925315	0.17058292	0.17832783	-0.27707422
0.57234025	0.94883275	-0.6581017	0.6046136	-0.060073454	-0.81645125	0.8922286	-1.0143049	-0.42985246	-0.38041243	-0.2540044	0.0015915706	0.088279314	0.76638305	-0.54133445	-0.66757685
-0.30325633	-0.15136032	-0.023768766	0.41959277	0.16790673	0.1938673	-0.12058303	-0.327727	-0.29081732	0.0061946837	0.062197655	0.18055172	-0.2571417	-0.12944064	0.29669243	0.17648886
0.69772184	0.7578306	0.35842267	-0.2707199	-0.4760718	-0.69331115	1.3177592	-0.7638327	0.94211346	1.2280164	-0.15536082	-1.1686141	1.0755593	0.15460531	-0.9612752	0.6428922
0.078179166	-0.6125562	0.027840788	-0.23791102	0.63228506	0.25190592	-0.6676745	0.48165238	0.30175778	-0.002348813	-0.35877743	0.38808307	-0.1273201	-0.60662055	0.036994904	0.4900377
0.025635764	0.07993953	0.01222252	-0.14595911	0.15357636	-0.15794177	-0.035367277	0.19096355	0.14354484	-0.20525138	0.04391524	0.193245	0.01332597	0.013770034	-0.12413093	-0.10289957
0.28356895	-0.21329558	-0.029736642	-0.5767577	0.53846985	-0.21509792	-0.4353065	0.5624922	0.5406926	-0.4564029	-0.2687813	0.33781284	0.21614182	-0.230651	-0.39124614	-0.09577632
-0.5409569	-0.7559129	-0.11595838	0.73485774	0.5090902	0.65646136	-0.54006636	-0.49729228	-0.5111464	0.8722793	-0.21582831	0.24491552	-0.56175774	-0.74666804	0.67156297	0.8456477
0.07653078	0.13784689	-0.31646934	0.28710794	0.015999649	-0.21521913	0.17152241	-0.32665157	-0.3032637	-0.32407576	-0.031043703	0.14324367	-0.12943424	0.25072876	0.051493783	-0.3434234
0.13182765	0.055978686	-0.23309717	0.1893261	0.054166663	-0.17826098	0.09820492	-0.22396594	-0.059687775	0.10473728	-0.10526707	-0.15596454	0.083541945	0.051329006	-0.09738515	-0.032014396
0.39219183	-0.12695327	-0.33095044	-0.07057231	0.24734859	-0.3476721	-0.036293767	0.19627158	0.14526531	-0.051104352	-0.4261394	-0.2025697	0.30588436	0.015299179	-0.26018718	-0.076841764
0.6561943	-0.13324973	-0.8204135	-0.15821251	0.64384985	-0.660343	-0.40985766	0.32277957	-0.03465301	-0.75330013	-0.6686408	0.37562072	-0.050243232	0.2922637	-0.3888357	-0.63454247
-0.22042806	0.5201124	-0.17425272	0.500284	-0.29026943	-0.18986951	0.45776984	-0.54448146	-0.49778968	-0.38167053	0.3083144	0.35338888	-0.3667575	0.5706962	0.0759505	-0.5027397
0.4866962	-0.87088215	-1.0891979	-0.18069547	0.9064502	-0.08018924	-0.86101335	0.61413914	0.14944687	-0.3274606	-0.9412435	0.16242068	0.0009774433	-0.48370415	-0.051624503	0.17769171
-0.122108035	0.12425306	0.46720588	-0.25023377	-0.13331844	0.13931556	0.20966873	-0.030887038	0.35271844	0.39681032	0.2146204	-0.20843254	0.2302893	-0.14216062	-0.082577124	0.2932942
0.38073882	0.08023949	-0.34743258	0.038674586	-0.05250124	-0.4647057	0.31757796	-0.09120544	0.11346908	0.16778731	-0.27576873	-0.524691	0.4720441	0.24406432	-0.37017706	-0.09340247
-0.06434212	-0.37888902	0.24543796	-0.3602419	0.38694528	0.28499442	-0.41217998	0.38439226	0.36676463	0.18799797	-0.06584836	0.106419906	0.033093456	-0.4748138	0.06975217	0.4661787
0.07564716	0.64827645	0.24994308	-0.11420832	-0.43601426	-0.36747727	0.76287735	-0.48073936	0.29029065	0.22577024	0.3218969	-0.26520926	0.40169796	0.45327833	-0.4577469	-0.3146336
-0.05160225	0.4744135	-0.291177	0.57971936	-0.18766728	-0.30228284	0.35448527	-0.7382827	-0.5093895	-0.34734	0.1193956	0.19494979	-0.31147254	0.5949438	0.06696012	-0.47111776
0.6237609	-0.16361508	-0.26869547	-0.53034747	0.19997708	-0.7478382	-0.018114258	0.47445405	0.619138	-0.107554525	-0.51277757	-0.45559928	0.7163226	0.14278215	-0.8062699	-0.36000237
-0.47979227	0.29875094	0.46858093	-0.101250015	-0.026355976	0.17308253	0.1698758	0.025275195	0.15892129	-0.14806543	0.33953854	0.6510158	-0.35696447	0.123308055	0.12425537	-0.050740466
0.37648377	-0.27970308	0.005148598	-0.5442022	0.4109077	-0.21521394	-0.2890233	0.54376376	0.49212286	-0.17298552	-0.36291426	0.044061404	0.32524267	-0.25879088	-0.38433844	0.08199674
0.036429945	-0.19883205	0.626927	-1.0493242	0.5090442	0.0453133	-0.25007167	0.7274624	1.0884787	-0.1809169	0.04548261	0.5030383	0.4999039	-0.5433103	-0.6209403	0.4172859
0.046661623	0.23474158	-0.18940175	0.078638464	0.10049784	-0.32597387	0.087693654	-0.056842666	-0.05580533	-0.25992674	0.003925945	0.046411507	-0.073041245	0.22421348	-0.16164955	-0.30402976
0.3369807	-0.08291282	-0.13040532	-0.22491816	0.06499734	-0.29174352	0.05371903	0.13396117	0.32687718	0.014816121	-0.24413687	-0.26051465	0.3816038	-0.07576188	-0.34374282	-0.022973808
-0.1818018	-0.16368325	0.20895988	-0.030816477	0.22302312	0.18835343	-0.17786779	0.07737335	0.14916645	0.13702448	0.07292964	0.2409124	-0.20974219	-0.22203727	0.122975394	0.27485493
0.2607093	-0.07298296	-0.90986276	0.20632543	0.7543788	-0.37382522	-0.4563094	0.19339457	-0.24916986	-0.9784228	-0.48156133	0.99073005	-0.53421235	0.30138668	0.039421357	-0.5750475
0.4536455	-0.7594757	-0.50886315	-0.3921465	0.7303406	-0.09612487	-0.7363582	0.5637906	0.31903902	-0.24232355	-0.57560545	0.008653051	0.2839343	-0.5323751	-0.27661055	0.14191407
0.34920228	-0.29475063	0.0905203	-0.6894908	0.20827334	-0.253399	-0.20819859	0.4811535	0.6706982	0.03157512	-0.3323136	-0.32979184	0.5784839	-0.4038455	-0.5019111	0.29276094
1.1926845	-1.2030348	-0.77440715	-1.1072661	1.201631	-0.6597326	-1.207896	1.2059427	1.0023562	-0.72540367	-1.1140754	-0.12783676	0.98366255	-1.0389613	-0.9502422	0.12599607
0.34119675	0.039951652	-1.021078	0.23841248	0.6101182	-0.52948236	-0.37781426	0.068260975	-0.32980984	-0.82563716	-0.5000427	0.5863113	-0.37218425	0.45141754	-0.14921272	-0.684955
-1.0210369	0.8130473	0.9479292	0.25320724	-0.5280764	0.62546164	0.6837787	-0.78745943	0.23278154	0.5009494	0.9364937	0.7758169	-0.69092524	0.24162501	0.4864769	0.17537767
0.3589984	-0.43687725	-0.48202792	-0.28847203	0.6290516	-0.20638502	-0.65716267	0.53439075	0.22032948	-0.46448293	-0.50856704	0.20923981	-0.027388528	-0.20180821	-0.13947158	-0.1169555
0.001985923	-0.025811948	0.31921265	-0.023234082	-0.052812893	0.06743443	0.100577384	-0.09293447	0.2710543	0.36737362	0.062230494	-0.20093715	0.19817527	-0.09872728	-0.055115603	0.25450736
0.76166236	-0.16068357	-0.5843647	-0.16998975	-0.19365767	-0.59115976	0.27982938	0.043326847	0.30324155	0.2921409	-0.7788848	-0.7539598	0.6434754	0.05301187	-0.5886477	-0.16224071
1.0187134	-1.0980445	-0.9057106	-0.9813998	0.95821714	-0.53395075	-1.0286461	1.0608311	0.87134236	-0.6697941	-0.9504836	-0.05646688	0.9545515	-1.1077455	-0.8053106	0.58769274
-0.09920663	0.026852055	-0.48670593	0.34201032	0.41809776	-0.21764754	-0.18586811	-0.10465048	-0.30060497	-0.57573456	-0.051144008	0.77684	-0.48039323	0.25095543	0.10217795	-0.43528667
0.3065471	0.078850895	0.009060852	-0.1607507	-0.13714495	-0.32149315	0.28131232	0.01932543	0.27011833	0.11235097	-0.069023184	-0.39103523	0.41649935	0.14326942	-0.3609344	-0.08756983
-0.83895	0.91528046	0.96418273	-0.26638004	-0.50232464	0.3475472	0.8509569	-0.5694639	0.55838066	0.3445186	0.8694987	0.72736293	-0.40077165	0.4227004	0.0985768	-0.12119576
0.1251673	0.63858557	-0.90120107	0.80444163	0.23832048	-0.6032724	0.26302013	-0.548779	-0.82206184	-0.86792463	-0.10920216	0.76311535	-0.6772673	0.887476	0.08930346	-0.9278852
0.02863717	0.08258463	0.012317876	-0.2307243	0.3696066	-0.19352187	-0.08572397	0.24825592	0.23478194	-0.46987337	-0.015145608	0.595333	-0.15681534	0.042021014	-0.16594689	-0.27408895
-0.5234704	0.47171882	0.4588196	0.11871607	-0.18186852	0.13470308	0.4075955	-0.30097586	0.042151287	-0.11781071	0.44632775	0.50058186	-0.2978868	0.35054907	0.09230333	-0.21546157
-0.522745	0.39728847	0.25425068	0.22988357	-0.11556213	0.12025087	0.31539795	-0.3510621	-0.12190274	-0.08312479	0.39911583	0.4684104	-0.38998264	0.2890704	0.19714466	-0.14681412
0.17851585	0.058071036	-0.25758407	0.24838491	-0.16739208	-0.19475897	0.2504527	-0.26343146	-0.1566468	0.055874426	-0.11877351	-0.27082738	0.13641576	0.071726546	-0.09469314	-0.07127316
-0.04213173	0.0221076	-0.55937403	0.3291406	0.07815402	-0.03452124	0.06897322	-0.28560096	-0.35567167	-0.26373556	-0.0024494475	0.19112661	-0.23992088	0.1652323	0.15110117	-0.1390843
-0.08916436	0.03452014	-0.066702805	0.0706217	0.1665041	-0.1260501	-0.07993367	0.069406964	-0.073719956	-0.32304752	0.05031263	0.27906197	-0.16557449	0.1336281	0.04426124	-0.1391413
0.46403268	-0.27933013	-0.5225077	-0.18141147	0.28358918	-0.3119226	-0.18372998	0.26081374	0.22560528	-0.20295456	-0.5579892	-0.19104227	0.34421366	-0.07141658	-0.32829386	-0.11055863
-0.3283032	-0.3616205	0.35686192	0.1197142	0.14004475	0.5277219	-0.1705367	-0.015665736	0.01999597	0.6456868	0.10262797	-0.03885683	-0.0900151	-0.58140755	0.3334454	0.6846257
-0.15591028	0.4179617	0.6431621	-0.46558893	-0.21299708	-0.008330051	0.43863702	-0.004753883	0.65364283	0.3538749	0.341743	-0.0092395395	0.30064046	0.08358821	-0.35871473	0.13447498
0.79237026	-0.061608464	-0.38587993	-0.43926412	0.17174621	-0.7333054	0.22627546	0.26438683	0.5793208	0.1981359	-0.547329	-0.6552175	0.7900666	0.09271941	-0.8104919	-0.13058676
-0.113251016	0.124030456	0.08488146	0.1670445	0.060520623	-0.016761884	0.110817745	-0.17490444	-0.0051638423	-0.17600806	0.15894362	0.2443418	-0.09804208	0.15266411	0.08167672	-0.1077714
-0.7346767	-1.0928001	-0.3877319	1.0272595	0.68797946	0.8324799	-0.8130815	-1.0022941	-0.905677	0.9137654	-0.4574338	0.13241847	-0.62130773	-0.920904	0.870287	0.95339274
0.5833884	-0.29895252	-0.4637653	-0.5066065	0.42687768	-0.6011441	-0.3166852	0.55425924	0.42116508	-0.4487393	-0.52046067	0.020412732	0.34075838	0.0013445469	-0.5715261	-0.4088858
0.54129183	0.06227687	-0.9770005	0.2350909	0.45137087	-0.63299644	-0.29089457	0.1359824	-0.30347678	-0.7287121	-0.6168924	0.43955395	-0.15993479	0.4399287	-0.2334566	-0.64110965
0.55736464	-0.661645	-0.23078023	-0.5677194	0.6579123	-0.1810907	-0.67135626	0.7292391	0.6257169	-0.2563612	-0.65393937	-0.13034827	0.46656603	-0.4919734	-0.39122483	0.21043226
-0.11745655	-0.0684638	-0.037482332	0.23781593	0.20865467	0.06177108	-0.10400776	-0.1209587	-0.14381821	-0.092780255	0.027113168	0.2180475	-0.17344911	-0.11650851	0.16580728	0.11337393
-0.4206993	0.48924938	0.33760393	0.07662983	-0.078359455	-0.019355344	0.38561302	-0.27561885	0.05532538	-0.2612873	0.39540598	0.63840264	-0.4004241	0.25204837	0.051559694	-0.21850666
0.25472885	-0.20438881	-0.4062672	0.048637614	0.17305864	-0.19543974	-0.0452005	0.009865806	0.00807541	0.1193539	-0.36635983	-0.26316196	0.21510205	-0.042533007	-0.16382575	0.03271792
0.891411	-1.040038	-0.9089918	-0.84810793	0.988224	-0.5057463	-1.0477208	1.0128068	0.7454231	-0.7138011	-0.91728127	0.18634799	0.79396397	-1.0277104	-0.62218136	0.6450178
-0.12289673	0.26090237	0.1416859	-0.17839034	-0.01315806	-0.19900194	0.061537586	0.11600707	0.1676938	-0.4768799	0.18070845	0.5194794	-0.16349326	0.35574254	-0.1311837	-0.494387
-0.20186956	0.30073288	0.31915224	0.0063203084	-0.13151641	0.084552184	0.4327282	-0.24190897	0.22444697	0.16974455	0.3421177	-0.040041942	0.012858532	0.18611419	-0.08686597	0.030567415
0.34874737	0.07138315	-0.1660762	-0.03735181	-0.16622639	-0.2703272	0.31009805	-0.10921887	0.13278075	0.1709083	-0.15558024	-0.40030193	0.32920268	0.06889067	-0.3259993	-0.033084944
0.2502541	0.00907685	-0.059959263	-0.09968357	0.016942345	-0.34517878	0.0998648	0.08899569	0.25834098	0.017890926	-0.10056502	-0.23209883	0.27883783	0.048763763	-0.2964776	-0.13249952
-0.12995772	0.12104436	0.549733	-0.32266787	-0.014644494	0.08538768	0.13495052	0.1418901	0.50169975	0.11244574	0.23398241	0.16814777	0.14395458	-0.0951758	-0.19300893	0.261254
0.49863192	0.3243112	0.45928693	-0.37382144	-0.59231704	-0.37980393	0.6615599	-0.24077141	0.59320647	1.0269964	0.03225379	-0.9947549	0.8764731	0.11850383	-0.63449866	0.310827
-0.45826247	0.34096202	0.6076599	-0.23466058	-0.23608568	0.2876936	0.3864635	-0.15377523	0.394897	0.44343507	0.43557036	0.102660276	-0.025758047	-0.02445941	0.062313545	0.22031087
-0.0049505774	-0.62410635	-0.35129222	0.31720215	0.43211225	0.30856675	-0.43609622	-0.083885305	-0.2603849	0.53085977	-0.35324326	-0.092169404	-0.11012977	-0.5483621	0.25908014	0.63602155
-0.037984394	-0.14934802	0.19030853	-0.42307952	0.23358275	-0.008363206	-0.17078209	0.3371313	0.49652973	-0.15868166	-0.0366	0.2598053	0.11972276	-0.25505146	-0.19925483	0.09958889
0.43870905	-0.09920254	-0.40723532	0.052386284	0.18731035	-0.3324276	-0.049495704	0.036792126	0.049114663	-0.10661411	-0.42460364	-0.13187583	0.15820308	0.1329137	-0.28141013	-0.1495633
0.3588536	-0.6742775	-0.5052272	-0.19433154	0.42975622	-0.053723626	-0.5471355	0.3925154	0.19601381	-0.011686424	-0.6862568	-0.1419628	0.13178034	-0.43657297	-0.11988158	0.2195085
-0.076525554	0.19477002	0.38713762	-0.247474	-0.07099241	-0.08749467	0.22768213	-0.008932864	0.39862043	0.16909343	0.1676398	-0.08794779	0.13877814	0.027420975	-0.16015583	0.055519294
-0.21618682	0.3002513	-0.0972899	0.23283212	0.060638335	-0.12294787	0.21012546	-0.19657955	-0.18122736	-0.27775598	0.23331168	0.40902838	-0.28853157	0.31297314	0.09163725	-0.3225316
0.18199795	0.2952107	0.40784758	-0.20506497	-0.45462468	-0.14664607	0.64783084	-0.3125031	0.48392576	0.81035364	0.06432975	-0.64055395	0.57367784	0.03751178	-0.4102218	0.30997303
0.29980767	-0.06396562	-0.78153366	0.5533963	0.35632968	-0.21958992	-0.07478238	-0.44442335	-0.57554424	-0.32853103	-0.5076374	0.09224815	-0.23303023	0.23565027	0.06488484	-0.3480258
5.1423187e-05	-0.20538758	-0.44550055	0.65355	0.12238472	0.066962175	-0.08321869	-0.6638938	-0.5464964	0.12636393	-0.27343285	-0.110864334	-0.06182001	-0.022921825	0.22635701	0.14168438
-0.15882762	0.14411065	-0.20829323	0.3036387	0.28608975	-0.12899053	-0.07181044	-0.15664718	-0.34737396	-0.3607634	0.08316567	0.56234866	-0.4871811	0.19747195	0.12149222	-0.2550024
0.26031098	-0.46217766	-0.34718138	-0.15913834	0.49946034	0.029415254	-0.49292505	0.32451627	0.133219	-0.18164505	-0.39327618	0.07821385	-0.026417615	-0.33760035	-0.05840313	0.23237456
0.42475316	-1.2291223	-0.5272958	-0.5358708	1.0647804	0.12183313	-1.1431543	0.9066085	0.5849264	-0.13070291	-0.8295656	0.13942745	0.2053367	-0.9882253	-0.14921215	0.68091387
0.26108426	0.2903658	0.30002868	-0.33716527	-0.33433902	-0.33862394	0.47537845	0.019838065	0.51018643	0.2896678	0.07671581	-0.41897824	0.4944906	0.19832736	-0.42587328	-0.080133505
0.32857147	-0.057219073	0.09778328	-0.38651946	0.13880858	-0.34185347	0.014916743	0.32358322	0.41180694	0.021174958	-0.19448295	-0.16534203	0.38360444	-0.07349426	-0.52046454	-0.026991019
0.2579575	-0.2583078	0.19051981	-0.5485691	0.26432317	-0.029092286	-0.111282706	0.4352966	0.65378535	0.17010468	-0.23742774	-0.27540803	0.48587015	-0.31664178	-0.38349777	0.26240143
0.13524027	-0.30513534	-0.0008804912	-0.30751252	0.38481063	0.044554688	-0.27946568	0.4196307	0.35370585	0.0126162	-0.2549425	0.06466885	0.102780044	-0.30453962	-0.101252966	0.16968632
0.05653403	0.15658814	0.030785272	-0.09218675	0.2055528	-0.27635607	0.06818773	0.04106733	0.18539545	-0.23778088	-0.027976338	0.17936175	-0.0033785545	0.21246153	-0.161823	-0.25160623
-0.77347976	-1.269672	-0.7358809	1.0904919	1.1251656	0.9229951	-1.1367055	-0.6685118	-1.0422361	1.0320293	-0.547055	0.46106824	-0.9037714	-1.1174717	1.0748873	1.2140384
0.26731157	0.1632896	-0.9825185	0.06368483	0.3741845	-0.69721544	-0.15730052	0.07875023	-0.24905314	-0.9742127	-0.23583174	0.8193764	-0.4072601	0.5432691	-0.10012605	-0.87848353
0.5544208	-0.34384888	-0.4922539	-0.2596333	0.3486868	-0.3573693	-0.24886245	0.33521506	0.29841447	-0.18664165	-0.5530382	-0.22905068	0.30222532	-0.03396795	-0.39046752	-0.11814488
-1.2131532	1.2300153	1.2104343	-0.32666302	-0.90223867	0.8856248	1.1279135	-0.95525146	0.7907294	0.71647066	1.2075019	1.1671783	-0.9483388	0.8455771	0.6150001	-0.2589383
0.07911755	0.0630281	0.09860376	-0.1736141	0.10540958	-0.18217933	0.09797644	0.036148544	0.18786645	-0.0058229393	-0.030752376	-0.050421447	0.16726735	-0.021019533	-0.19225182	-0.0037142562
-1.0465256	0.5863098	0.9170417	0.3151523	-0.53293073	0.700561	0.5649544	-0.94840944	0.12665993	0.77452976	0.9056703	0.80057704	-0.7411156	0.018991329	0.6131141	0.40483582
-0.26948178	-0.6695128	-0.2022464	0.85509735	0.13392243	0.42988446	-0.20812877	-1.1071938	-0.59679425	0.7031949	-0.09152549	-0.4311971	-0.10190334	-0.5364608	0.5362934	0.72789544
0.21471708	-0.043026432	-0.15590736	-0.05531851	0.21667516	-0.2503379	-0.023668488	0.1145473	0.10583839	-0.22955279	-0.2225934	0.004581024	0.097645596	0.06377332	-0.16947706	-0.18795785
0.034473337	-0.538489	-0.26091728	0.29113853	0.25577232	0.29654825	-0.27964187	-0.13091719	-0.15351151	0.32877654	-0.36257136	-0.2021773	0.02674019	-0.45876455	0.18262745	0.46842974
0.16280885	-0.38746637	-0.26780987	-0.027163297	0.32238147	0.0780166	-0.3321316	0.21781345	0.13006827	0.1339894	-0.28807715	-0.14358506	0.10370965	-0.3623136	0.0076057743	0.27330938
-0.7296245	0.6662999	0.7643188	-0.16391836	-0.24838674	0.26963875	0.5083679	-0.34334132	0.43639615	0.06180804	0.6846113	0.9524137	-0.626287	0.30161592	0.07356919	-0.13769317
0.5799749	-0.49672133	-0.8212142	-0.4467378	0.7098112	-0.5325812	-0.69445837	0.635164	0.32732314	-0.86104053	-0.5935721	0.5994636	0.018668013	-0.13235626	-0.39573017	-0.4136802
-0.36129534	0.17537338	0.5751871	-0.24957304	0.008568769	0.29177812	0.16078714	0.003572553	0.38406992	0.19869001	0.3568207	0.31974584	-0.025896726	-0.07801337	0.047671936	0.23609877
0.048477564	-0.0056269155	-0.13261493	0.24003792	-0.11076018	-0.032629948	0.052900795	-0.27145532	-0.15438838	0.11842898	0.019459678	-0.1579399	-0.0409334	0.012320736	0.02261569	0.09406544
-0.050046112	-0.94543153	-0.21725328	0.2501183	0.665907	0.47902963	-0.7035931	0.14537907	-0.03441384	0.5967556	-0.5260214	-0.23466642	-0.118300386	-0.8375645	0.35366872	0.83089536
0.010977565	0.19088566	0.07145522	0.07456112	-0.09230739	-0.10237293	0.29546195	-0.12349629	0.0044605145	0.12043091	0.09153194	-0.122190274	0.028451359	0.22442853	-0.046787553	-0.09606144
0.36457002	-0.13667893	0.06534069	-0.0817149	-0.14327696	-0.15544891	0.21287999	-0.075411856	0.29709223	0.52523595	-0.25591406	-0.5640597	0.44611862	-0.16113272	-0.29734263	0.31900254
-0.14191677	0.18404078	-0.1469097	-0.14937791	0.27581912	-0.1749102	-0.05873715	0.22785178	0.09624301	-0.6479304	0.07834798	0.7573831	-0.33621356	0.2191833	-0.009817352	-0.42931616
0.42915702	0.29221532	-0.9505834	0.39623812	0.57039434	-0.7527826	-0.06757978	-0.07221107	-0.44121945	-0.7690288	-0.43057442	0.5901837	-0.41077974	0.64250433	-0.16220962	-0.7737178
-0.071580425	-0.104147084	0.19522305	-0.022082854	0.08029216	0.064836636	0.017274596	0.05252548	0.22178409	0.22368431	0.094257936	-0.030458475	0.07901584	-0.20654593	-0.040274654	0.21150418
0.08952181	0.47663423	0.11532813	-0.119015224	-0.2886129	-0.3516156	0.50457495	-0.2248589	0.15274665	-0.046421822	0.23279692	-0.1677441	0.26695892	0.40412077	-0.42146993	-0.34424168
-0.9125792	0.8485046	1.0663464	-0.16102193	-0.6941442	0.546626	0.92116034	-0.79683506	0.6047938	0.8165699	0.8510202	0.5163173	-0.31483006	0.30755636	0.18112984	0.22668889
0.22678323	0.14880097	-1.0089413	0.90083575	0.41554934	-0.30605474	-0.17075084	-0.6994166	-0.8856713	-0.7788037	-0.5870878	0.95658445	-0.87981516	0.43638456	0.17889455	-0.56705993
-0.12715909	0.2351688	0.41848344	-0.21229099	-0.21596836	0.017745446	0.25345483	-0.057668626	0.3294766	0.10960536	0.24490328	-0.014818533	0.16088842	0.07450553	-0.1376985	0.004041909
-0.20374806	-0.22258383	0.21911156	0.1375588	0.060491167	0.3569934	-0.05679178	-0.1827	0.060697716	0.52307916	0.104713164	-0.14108992	0.018856216	-0.42695498	0.21947819	0.49957162
-0.24443106	0.2142531	0.46999323	-0.114442386	-0.17575863	0.123520724	0.1793088	-0.09390129	0.3033597	0.3548346	0.2775625	-0.048116375	0.0056074965	-0.050218496	0.036867887	0.27231598
-0.4566241	0.053302456	0.3766376	0.19594853	0.052904133	0.40187803	-0.021215381	-0.15380448	0.036874168	0.15496452	0.3414788	0.51547354	-0.44836655	-0.13018426	0.36415407	0.29968464
-0.00514118	-0.12843028	-0.22751585	-0.017295852	0.409694	-0.07653007	-0.29045832	0.14690714	0.024786465	-0.37463382	-0.20424138	0.6047847	-0.21782245	-0.021840079	-0.015199788	-0.1709654
-0.033283215	0.4009169	0.11766977	-0.037996247	-0.2839806	-0.20828164	0.4080967	-0.21692751	0.11437598	-0.023351578	0.14582464	-0.118191026	0.1391275	0.38409862	-0.17075402	-0.26881534
-0.18631661	0.021901166	0.020858359	0.23482014	0.051460937	0.010208492	0.08781858	-0.18380901	-0.13840702	-0.11064748	0.11152054	0.22308427	-0.18563403	0.071688004	0.14747557	-0.053675752
0.20537718	0.39837557	-0.8146484	0.32330984	0.4235221	-0.6755369	-0.0712202	-0.1252653	-0.3447138	-0.76664186	-0.27665666	0.56012696	-0.397699	0.67124784	-0.064763956	-0.79516053
-0.3193861	0.0033770225	0.07275979	0.478166	0.002856863	0.19960445	0.035502587	-0.4237212	-0.33488882	0.12750494	0.21438518	0.23559867	-0.3818378	-0.034367107	0.27141753	0.22063132
-0.56919706	0.5522507	0.661033	-0.14004569	-0.36291876	0.17964631	0.50757235	-0.25935018	0.30073023	0.09548315	0.6237582	0.40620095	-0.21130547	0.33721384	0.09764302	-0.20147035
-1.0129972	1.0702386	1.0679767	-0.39092815	-0.6613381	0.5986506	1.0033504	-0.65719527	0.8082906	0.6112387	1.0424993	0.90943724	-0.60907465	0.5996342	0.27009356	-0.17090447
-0.19759576	0.22699915	-0.0802688	0.067225054	0.13555035	-0.13228439	0.05439866	-0.036478497	-0.04882266	-0.47325626	0.14078489	0.5055901	-0.2782787	0.3278504	-0.043532044	-0.39565784
0.0035466414	0.013772688	0.21385036	-0.35626692	0.17096385	-0.023801975	-0.038274355	0.23522696	0.41493347	0.0076126778	0.03601262	0.069880545	0.06764649	-0.0868679	-0.15501823	0.047020804
0.25886008	-0.03209441	-0.39607614	0.009104287	0.30406258	-0.3486362	-0.18180859	0.14458638	0.0018093513	-0.39948368	-0.29777783	0.17643417	0.017279414	0.17223191	-0.13572669	-0.37616158
0.6390954	0.7346569	0.27862304	-0.44211888	-0.6138005	-0.6112909	0.92751753	-0.6132561	0.67824006	0.77764773	-0.12437354	-0.72490054	0.7334774	0.51524293	-0.747047	-0.17700586
-0.006499702	0.070090346	-0.0026263741	-0.26394275	0.1993987	-0.18801923	-0.09488127	0.2365269	0.15973043	-0.37645024	0.031399086	0.40498665	-0.10956686	0.13003105	-0.14469786	-0.2865632
-0.03978897	0.64870596	0.68689543	-0.56195736	-0.44639608	-0.21463615	0.7027672	-0.017627992	0.79336774	0.40418097	0.39508632	-0.19487548	0.38298967	0.39877725	-0.4813572	-0.26501822
0.32746527	-0.021771917	-0.23214957	-0.30226636	0.22695485	-0.44692028	-0.12618773	0.31787732	0.30276152	-0.29984117	-0.22202902	0.0496941	0.14532657	0.092698924	-0.43134275	-0.35195264
-0.022346698	0.101833805	-0.014339505	0.19446637	-0.0037239015	-0.111205816	0.17418441	-0.14925568	-0.053791232	-0.03211849	0.019124638	-0.09785165	0.024185335	0.11973167	0.00041459917	-0.08239241
-0.383525	0.5879844	0.60016084	-0.085124336	-0.4286746	0.11957314	0.6429292	-0.49979994	0.33611533	0.355866	0.5333476	0.025186388	0.00092647574	0.39005893	-0.07746348	-0.07418534
0.019349385	0.23086639	0.24226864	0.04816581	-0.24636637	-0.050717052	0.45660117	-0.28837553	0.17190786	0.49250284	0.1660437	-0.5400252	0.3307537	0.07425582	-0.15657078	0.18991154
-0.20674007	0.038504414	0.3002642	-0.12704957	0.13372993	0.20063005	-0.041808147	0.14697866	0.25687453	-0.030306239	0.19687866	0.36162925	-0.107174344	-0.16258569	0.022779996	0.15007034
0.19266613	0.20241499	-0.049194247	-0.025719631	0.06736664	-0.295202	0.26712313	-0.10881709	0.09380477	-0.10442299	-0.056047354	-0.1365302	0.20066068	0.21924038	-0.23350237	-0.2423358
0.09947404	-0.031951137	0.2936498	-0.029812757	-0.21550351	0.038026992	0.32990903	-0.20999828	0.2953286	0.4571823	0.100799136	-0.5408357	0.3867185	-0.20047238	-0.16749115	0.35194907
-0.7010277	-1.0515424	-0.6761973	0.75845367	0.9056133	0.7366513	-0.8671886	-0.30176902	-0.7023932	0.6950092	-0.54085964	0.6891123	-0.7887584	-0.8011146	0.843104	0.92162234
0.049624223	-0.30420604	-0.110718414	-0.04908085	0.3751219	-0.00235859	-0.36283517	0.23318553	0.06699338	-0.06465364	-0.21154247	0.098777965	-0.028744638	-0.19426236	0.008962018	0.14001276
0.39903262	0.31662554	-0.71114653	0.30291218	0.26411343	-0.581845	0.108316354	-0.19909048	-0.42540616	-0.57686	-0.4012542	0.22832209	-0.07402374	0.53796655	-0.19161265	-0.6427874
0.38376063	-0.60557497	-0.3662223	-0.26194644	0.6475419	-0.06790645	-0.69326997	0.5351016	0.32716328	-0.28409156	-0.50394183	0.13356763	0.13540313	-0.4062208	-0.17751189	0.15709037
0.37512383	0.1333092	-0.71965224	0.52855206	0.44125944	-0.48148945	-0.01954229	-0.30715746	-0.46911314	-0.4977793	-0.49566838	0.3456691	-0.21456717	0.38364223	-0.09588529	-0.4604732
-0.45721143	0.42221346	0.40566736	0.050277427	-0.21261501	0.08756004	0.36417413	-0.23131593	0.10650249	-0.14056064	0.4552832	0.54817235	-0.30727947	0.22971804	0.105877034	-0.116846055
-0.19071878	0.15750428	0.35929942	-0.062383246	-0.026548276	0.08055151	0.1491241	0.03201405	0.17504467	0.0050293915	0.19125079	0.22683801	0.008136554	-0.06841645	-0.046841312	0.048595928
-0.028452808	0.32552943	-0.042281765	0.047899526	-0.03796363	-0.18978147	0.19386062	-0.12376054	-0.12109059	-0.324049	0.18238197	0.25938717	-0.1499563	0.40795305	-0.1329897	-0.4365243
0.39051592	0.0404919	0.07660598	-0.7681783	0.27205184	-0.54284424	-0.04708831	0.58726066	0.6965032	-0.42577025	-0.13133845	0.16917703	0.45901543	0.12809238	-0.67189366	-0.36792576
0.09979067	-0.29498684	0.06286206	-0.118711375	0.12986878	0.029148616	-0.20014308	0.17127919	0.18908033	0.08981161	-0.15903826	-0.16667867	0.20994423	-0.21243532	-0.082096085	0.16120426
0.24785185	0.05227789	0.045441654	-0.46613872	0.21158257	-0.46866453	-0.103671886	0.30853817	0.44552386	-0.41854095	-0.12353792	0.27862522	0.2591823	0.1477671	-0.5477597	-0.38735604
0.4663475	-0.7242875	-0.36325666	-0.63165843	0.7313398	-0.19457088	-0.8286877	0.726553	0.53383243	-0.42915788	-0.567464	0.17064063	0.35447547	-0.68147457	-0.3870465	0.31713393
0.36011034	-0.3955993	-0.4164983	-0.3771067	0.60669243	-0.26970515	-0.53463876	0.48184448	0.30060986	-0.50044274	-0.42371365	0.30848867	0.087905675	-0.14238295	-0.21566246	-0.13640735
0.29163682	-0.08056052	-0.3397946	0.16843674	0.07855762	-0.25280488	-0.01138182	-0.070327654	-0.086466	-0.07772256	-0.34982565	-0.17324652	0.123814836	0.090778746	-0.14933065	-0.10141349
0.2980178	-0.7078135	-0.5262678	-0.27179483	0.7130122	0.087131344	-0.75416124	0.5869163	0.21441156	-0.2652484	-0.530129	0.281301	0.040790897	-0.5645572	-0.061984845	0.32149944
-1.0764003	1.0569329	1.1686237	-0.09673022	-0.708868	0.7687972	1.0113534	-0.9408677	0.6469181	0.7291219	1.109449	0.9336841	-0.8943657	0.5746764	0.6328137	0.17196563
0.1835041	0.21589664	-0.012361518	-0.14741614	-0.08696799	-0.3279871	0.31081894	-0.010982194	0.1897675	-0.13367753	-0.07179705	-0.18155581	0.22973163	0.2514309	-0.4455961	-0.22363558
0.33498916	-0.80634534	-0.15547282	0.103476666	0.17571986	0.15017314	-0.25899154	0.00590759	0.16843799	1.038536	-0.5512342	-0.7273243	0.4043916	-0.73124814	0.051991366	0.7964659
-0.21631168	0.22340924	0.24716663	0.09089034	-0.08082958	-0.0041966434	0.22877012	-0.30059335	0.021945192	0.1336064	0.19998215	0.013327626	-0.007652661	0.074489765	0.0082800435	0.100286126
0.5947051	0.035009384	-0.49170166	0.04432283	0.07659416	-0.4829333	0.051425535	-0.0051550176	-0.027681444	-0.19636293	-0.57076985	-0.23405296	0.22624688	0.20436262	-0.3756645	-0.24584387
0.031524472	0.89563054	-0.8184748	0.7330995	-0.13516311	-0.7953499	0.5127299	-0.59088475	-0.70361364	-0.9177106	0.12149517	0.7376544	-0.59500086	1.0368934	0.03759433	-1.0705868
0.7736539	0.44716802	0.59767	-0.55285823	-0.70282453	-0.5584313	1.037737	-0.52277374	0.94695896	1.1690878	-0.38143188	-1.060297	1.0657544	0.03843453	-0.8516146	0.47740567
-0.16489892	-0.35328528	-0.14039475	0.040475037	0.5887482	0.22136174	-0.48117873	0.22410783	-0.040552422	-0.13488458	-0.09362713	0.66808355	-0.3904103	-0.2739479	0.20756008	0.20419781
0.15714875	0.062023506	0.23722352	-0.28828093	-0.036817383	-0.15287933	0.05042099	0.14389974	0.3839962	0.030996973	-0.008502385	-0.16918306	0.37013763	-0.0038975698	-0.34071916	-0.027968418
-0.6204073	0.41728538	0.520219	0.248303	-0.43413234	0.30487335	0.4715691	-0.72270286	-0.14421006	0.24826534	0.616028	0.31275892	-0.33785957	0.19556415	0.29121667	0.028740585
0.3348002	-0.013156085	-0.09147215	-0.06872934	-0.09094991	-0.26335862	0.08186192	0.042714003	0.09011133	0.017830502	-0.24901415	-0.24424736	0.3191113	0.09912628	-0.29557648	-0.044146635
0.50336474	-0.10946832	0.075438365	-0.57848805	0.02027215	-0.41866943	0.12454761	0.2896793	0.65781313	0.19470926	-0.3164335	-0.5336546	0.59617746	-0.020437168	-0.5574181	-0.014960904
0.25244635	-0.26612347	-0.025382457	-0.3597987	0.25621635	-0.16249178	-0.24039912	0.33155057	0.3458423	-0.16150242	-0.20651247	-0.074684754	0.18827556	-0.13548057	-0.20104298	0.06604468
0.24817312	0.027475912	-0.07326618	0.24614571	-0.55033857	-0.10128154	0.5620392	-1.0470191	-0.08405631	0.6818842	-0.1148398	-0.7138664	0.4356219	-0.09162473	-0.12572151	0.35206965
0.4926232	0.19939688	-0.88129264	0.26667222	0.21566512	-0.61067384	0.0058186613	-0.08221961	-0.2751268	-0.55825275	-0.5559984	0.10663375	0.06626948	0.5444071	-0.3361662	-0.6518587
-0.03153258	-0.06309787	0.35778964	0.07707773	-0.27089143	0.1537306	0.2758617	-0.41774637	0.13659064	1.0509516	0.050797027	-0.47957566	0.2778729	-0.28510815	-0.04528788	0.48133156
0.4717073	0.5354761	-0.79026073	0.4532825	0.46477988	-0.71283257	0.093101904	-0.24061619	-0.42178288	-0.83524597	-0.3363279	0.53723127	-0.34425062	0.7477103	-0.33070636	-0.8867057
0.43007594	0.46721256	-1.0369021	0.607524	0.58713025	-0.78874385	-0.14088863	-0.22120284	-0.71726286	-0.95782065	-0.5534616	0.803732	-0.64045626	0.8815043	-0.13137229	-0.99941605
0.3907449	0.51232547	0.37626165	-0.18328722	-0.79296666	-0.43315256	0.94610804	-0.7028227	0.53730536	1.0000067	0.04764079	-0.98224443	0.7991511	0.27931118	-0.6140152	0.19392766
-0.016015064	0.4810489	-0.408753	0.19652405	0.17548314	-0.4032538	0.19109729	-0.15265419	-0.28039876	-0.6027712	0.0964954	0.4490095	-0.32186323	0.582337	-0.072936736	-0.67060465
-0.059479587	-0.2139554	-0.33911073	0.29943326	0.42560166	0.024826441	-0.32848486	-0.035906676	-0.24048322	-0.270392	-0.18587103	0.32535434	-0.3227983	-0.049724378	0.22430393	0.01447624
0.0015907481	0.09099537	-0.15754224	0.10217462	0.21839894	-0.23348346	-0.12208076	0.0043500923	-0.19453022	-0.474551	-0.002996165	0.6122739	-0.2707958	0.27106664	-0.017865872	-0.37574932
0.33931667	-0.05505005	-0.65075874	0.06929435	0.44851217	-0.5047901	-0.11867564	0.05471108	-0.066865906	-0.52115196	-0.41236317	0.23795782	-0.018232122	0.28171346	-0.257988	-0.41028687
-0.23202068	0.028910412	0.36272198	-0.23888128	0.021834223	0.122209914	0.07295515	0.06985264	0.3747724	0.16062956	0.14845508	0.15963823	0.022147166	-0.10109921	-0.037350383	0.17653549
0.5785526	-1.0461295	-0.368261	-0.74180186	0.9064791	0.08853888	-0.9316219	0.939321	0.7244533	-0.20638895	-0.79747295	0.11261867	0.3643567	-0.98516476	-0.24426666	0.6714851
-0.59390724	0.38170955	0.7227846	0.035477366	-0.31654364	0.38633406	0.38227692	-0.5844811	0.24328624	0.5666056	0.6087436	0.31764382	-0.26347905	0.018011933	0.19755517	0.29459393
-0.57433563	0.32989183	0.66739297	-0.17574377	-0.14970063	0.29333144	0.26140037	-0.18003172	0.47615132	0.44960776	0.49382332	0.4532484	-0.15997803	-0.13799146	0.08244914	0.30233464
-0.73939854	0.063555725	0.6081218	0.12504596	0.07147321	0.5782251	0.013627023	-0.23424074	0.21611416	0.46346483	0.482217	0.73441607	-0.47247073	-0.3018257	0.4586851	0.49065563
0.17557691	-0.23788615	-0.36449012	0.01214918	0.40638736	-0.09837025	-0.32650647	0.22960018	-0.06434546	-0.31262258	-0.27025515	0.34635243	-0.17138238	-0.05551138	-0.032147985	-0.10034873
-0.45906803	0.20829695	0.5693006	-0.14308223	-0.0952464	0.28027916	0.19184574	-0.14162952	0.21476862	0.22628678	0.34353235	0.1587193	-0.085353486	-0.08293443	0.09766722	0.2691563
-0.11264209	0.29478055	0.24349031	-0.22435258	-0.07419321	-0.1096287	0.18756828	0.09480681	0.14923969	-0.23236224	0.18988769	0.25822195	-0.018177375	0.25304765	-0.15206984	-0.28067043
0.11070572	0.16591704	0.098404646	-0.013880415	-0.12460348	-0.0842262	0.29391944	-0.095050946	0.20359339	0.3562676	0.05374133	-0.30917403	0.21678358	0.0860262	-0.17948267	0.061704695
0.098095804	0.036583755	0.21381281	-0.22578526	-0.06981105	-0.09118368	0.18104511	0.11754715	0.28460014	0.24837689	0.04728842	-0.19493508	0.2339984	-0.065191805	-0.21218544	0.08932789
0.024732295	-0.071376845	-0.2569333	0.19793831	0.4497109	-0.12280089	-0.27787662	-0.06475295	-0.16086903	-0.4110994	-0.13654825	0.56593406	-0.31757948	0.030014934	0.057438497	-0.15789546
-0.2645847	0.34800634	0.6284202	-0.39946735	-0.1245064	0.06676388	0.33985817	-0.011949898	0.5987433	0.18320423	0.33939347	0.076293945	0.20883268	0.082149476	-0.21007895	0.05705842
0.52687395	0.52900887	-0.29866245	0.14759885	-0.273317	-0.6043047	0.71476364	-0.5501132	0.022767134	-0.03158852	-0.26983073	-0.3874788	0.38667256	0.49104634	-0.5428419	-0.35532892
-0.22163229	-0.32465	0.2813488	0.014700989	0.33244032	0.40049455	-0.26603228	0.18725388	0.15600131	0.49304494	-0.071630545	0.015619731	-0.042961672	-0.50896895	0.23697722	0.62815726
0.7466916	-1.0982995	-1.0426884	-0.7095937	1.1272904	-0.14714648	-1.2119184	0.98994696	0.57321596	-0.6840873	-0.967653	0.5686926	0.20674261	-0.94127256	-0.35846233	0.3022573
0.3390078	0.17236279	-0.3302994	-0.011209535	0.0007713429	-0.48147044	0.11537173	-0.049170516	-0.000364673	-0.23127812	-0.3000129	-0.13475057	0.23427185	0.29022238	-0.28046158	-0.3111738
0.35570037	0.19660093	-0.07583324	-0.33135146	-0.13164537	-0.6684445	0.2413742	0.111893475	0.31732625	-0.19828953	-0.05743983	-0.17591423	0.30909038	0.28299755	-0.5657924	-0.4510958
0.69515806	-1.3849952	-0.8323941	-0.77797854	1.2854775	-0.18433887	-1.3868234	1.0611895	0.7171882	-0.53561735	-0.95740676	0.19853406	0.5100737	-1.2487328	-0.38783225	0.525812
0.4733974	0.0188818	0.090006866	-0.4180212	-0.022020547	-0.6149716	0.15858527	0.28393254	0.54484147	-0.031232912	-0.25282505	-0.42452824	0.63186747	0.10990799	-0.62148845	-0.21933421
-0.5002074	0.33373904	0.55810744	0.071917854	-0.36777222	0.3177571	0.34499934	-0.53035855	0.14028783	0.5220765	0.4521506	0.237126	-0.2440432	0.1286212	0.24475467	0.20408808
0.15514445	-0.7864258	-0.20726202	-0.023406697	0.63212854	0.17978454	-0.5774935	0.36772692	0.15145491	0.24078055	-0.47090015	-0.071920246	-0.010050737	-0.66395885	0.1438564	0.48879674
0.2800468	0.13609546	-0.38393682	0.3426712	-0.1422748	-0.33134568	0.31577072	-0.39649647	-0.18280153	-0.108713835	-0.122651406	-0.16367559	0.087739855	0.24304833	-0.19774745	-0.21164869
-0.22181077	-0.8816705	-0.71176445	0.67380273	0.7320638	0.5469138	-0.68838793	-0.24263804	-0.57851475	0.6485772	-0.66155964	0.078488074	-0.32949466	-0.7093797	0.578863	0.8188293
0.31018996	-0.29094106	-0.33680764	-0.32988593	0.4552859	-0.22857028	-0.35220852	0.37090948	0.22579136	-0.32286474	-0.36435226	0.120574474	0.15565217	-0.23306285	-0.25609633	-0.069821656
0.11565826	-0.39308625	-0.10022752	0.06753774	0.13294278	0.059435718	-0.091582224	-0.056046918	0.117614925	0.31291372	-0.26767755	-0.37014502	0.2481485	-0.26248547	0.003219512	0.32925528
0.10093422	-0.050502643	-0.12490743	0.08292129	-0.06063831	-0.0073492867	0.115933634	-0.10744474	-0.0054728207	0.18790208	-0.1589543	-0.2231887	0.14858517	-0.032061674	-0.06813277	0.15495723
-0.2661401	-0.28478763	-0.09458644	0.30369192	0.55072373	0.23021556	-0.45370448	-0.066184446	-0.279071	-0.19322427	-0.09500824	0.64440584	-0.5109172	-0.21687503	0.41195843	0.22267152
0.40121803	-0.6828988	0.2715636	-0.79502374	0.51752967	-0.034654703	-0.5902324	0.7502674	0.8179917	0.09276225	-0.3878926	-0.22087607	0.49395102	-0.85905844	-0.35372138	0.5352267
-0.2630404	0.25739416	0.36478344	0.097520754	-0.32017437	0.1487173	0.38339472	-0.36056292	0.004898687	0.35441867	0.37593254	-0.021007746	-0.06540031	0.08022318	0.11604894	0.109803185
0.670468	0.6273026	0.4810004	-0.5857604	-0.7089081	-0.60797215	1.0754462	-0.48510635	0.98357916	1.1392007	-0.28159478	-1.0550078	0.9829328	0.18948786	-0.82986253	0.32659197
-0.4704713	0.63691795	0.5945505	-0.15900324	-0.35584685	0.091964185	0.62307864	-0.464041	0.42930874	0.20536648	0.5458278	0.27983573	-0.07677593	0.47886312	0.008931592	-0.27230632
-0.0022989009	0.4888385	-0.019035354	0.20537737	-0.31518552	-0.324193	0.46810183	-0.41445085	-0.11465937	-0.23333915	0.18815143	0.022270419	0.027686846	0.5130906	-0.2426734	-0.50821316
-0.41509816	-0.2147718	-0.022935105	0.5140321	0.23924324	0.2971807	-0.2083256	-0.5024842	-0.3458785	0.2546751	0.18920496	0.21595596	-0.3834803	-0.18794896	0.3658577	0.28369442
0.05892459	-0.3402924	-0.086705	-0.1861109	0.43336037	0.06411868	-0.33727935	0.3718437	0.16283078	-0.17253155	-0.19735491	0.23927061	-0.025807023	-0.29622594	-0.02821811	0.18636242
0.2056935	-0.03443193	-0.41093683	0.06058381	0.34502754	-0.24936615	-0.19468476	0.20976596	-0.034390155	-0.51453495	-0.24114196	0.32795683	-0.19718473	0.16453062	-0.08632156	-0.33023232
0.058265362	-0.51132673	-0.12213472	0.38736054	-0.0080944775	0.2808764	-0.078294046	-0.5948896	-0.15608276	0.9332458	-0.3679607	-0.49678934	0.15382677	-0.45770714	0.15894632	0.74892956
-0.21445051	0.09266472	-0.2315968	0.2519664	0.22895044	-0.048681375	-0.0394782	-0.15297012	-0.24642164	-0.25079054	0.04174002	0.3448452	-0.3161907	0.16520874	0.1923268	-0.1485195
0.18105261	-0.65536124	0.09107336	-0.48420736	0.76830506	0.12391863	-0.6497309	0.66002756	0.5510174	-0.15309124	-0.37310454	0.40509218	0.112461254	-0.7126114	-0.13512644	0.48049304
0.34809393	-0.044342335	0.2876728	-0.13495596	-0.16737536	-0.15628968	0.60801977	-0.40915698	0.49262434	1.0077832	-0.15023631	-0.7333236	0.6212388	-0.15896502	-0.36321667	0.4975406
-0.008882894	0.47539937	0.22188766	-0.18094435	-0.35183772	-0.20401801	0.57650995	-0.22858718	0.3654279	0.28930554	0.17144066	-0.2784163	0.3533143	0.3353614	-0.37728003	-0.15905264
-0.25036368	0.124014504	-1.0123073	1.0309063	0.50065774	-0.06057572	-0.20923997	-0.95994204	-1.1176809	-0.5754681	-0.28453583	0.9427208	-0.9418859	0.3101647	0.49287486	-0.40559167
0.022871656	-0.48949137	-0.09054999	0.26195294	0.21735744	0.23185743	-0.276575	-0.0589805	-0.077897295	1.0161325	-0.29624754	-0.280409	0.016388535	-0.5227355	0.1592011	0.65343124
0.44281712	0.033567306	-0.5279176	-0.049549475	0.2974078	-0.51281655	-0.017899225	0.23014498	0.024966931	-0.44312763	-0.41962555	0.06309643	0.16522633	0.24121176	-0.34619653	-0.49475178
0.4556343	0.054573692	-0.5412957	-0.16201268	0.2748943	-0.67683834	-0.061542034	0.19592981	0.1053418	-0.5156569	-0.27128887	0.13988951	0.17319912	0.3126328	-0.419926	-0.5582116
0.25749665	0.07682588	-0.44982818	0.0642557	0.44259045	-0.6009095	0.08321715	0.009648496	0.14115867	-0.19664876	-0.13169527	-0.116380215	0.17642112	0.21570495	-0.29174754	-0.20474613
0.21914232	-0.83162546	-0.26203272	-0.36168647	0.6773027	0.13772509	-0.7247348	0.62741935	0.45235205	-0.066003345	-0.519387	0.12051326	0.060830045	-0.7545827	-0.039082635	0.5140227
0.40990105	0.12257794	-0.7029035	0.24885164	0.45513758	-0.51817185	-0.20708448	-0.039697055	-0.24224985	-0.616186	-0.46163493	0.43463236	-0.26234686	0.46644905	-0.19003733	-0.6216833
-0.5473705	0.536746	0.7069636	-0.17608447	-0.2337759	0.3535743	0.46502396	-0.28425556	0.5828177	0.4091584	0.628977	0.4633137	-0.220083	0.18097633	0.078118354	0.19923158
0.29908684	-0.49073222	0.005157173	-0.12985964	0.14708044	-0.008273378	-0.17112574	0.25184596	0.31850153	0.49072048	-0.47658622	-0.43721542	0.3124936	-0.41599354	-0.14683664	0.4362874
0.19704974	-0.43813202	-0.21120018	0.028449595	0.44095185	-0.002398943	-0.4164235	0.22015807	0.033563014	-0.015344601	-0.3992007	-0.095890045	0.13684785	-0.24111478	-0.019067146	0.17888534
-0.19036874	0.22529384	-0.046670653	0.21888553	0.07360843	-0.06441467	0.056521773	-0.19965658	-0.21463837	-0.33763856	0.1447602	0.4413492	-0.3640128	0.22971198	0.16297577	-0.20266466
0.7056543	-0.85912454	-0.43249103	-0.7317003	0.7835335	-0.22359087	-0.88353664	0.7890634	0.6415306	-0.46074718	-0.7256432	0.12520795	0.52419335	-0.7137927	-0.50615835	0.29166982
-0.12390591	-0.20455034	0.20727353	-0.010202388	0.056080256	0.23367007	-0.14213292	0.027399587	0.13035813	0.26316366	0.1103741	0.009968298	-0.10454737	-0.2782386	0.11824419	0.3874067
-0.75038004	-1.0911374	-0.78372365	0.94923604	0.9774798	0.8831	-1.0253143	-0.42787117	-0.9245601	0.8815487	-0.7613732	0.49432734	-0.85301083	-1.0013843	0.91389656	1.0759581
0.9140168	0.5710154	0.4266606	-0.728437	-1.0100226	-0.7745202	1.2180828	-0.57858086	1.0255983	1.235093	-0.5043748	-1.1989073	1.138345	0.20050554	-0.9706479	0.32029772
-0.36473024	-0.12033514	-0.04823395	0.42480677	0.20152006	0.26399833	-0.22033833	-0.23037896	-0.35095343	0.03758985	0.05800512	0.35274228	-0.38257617	-0.21213342	0.4102307	0.23022474
0.15963121	-0.09580441	-0.32750866	0.020207303	0.35775164	-0.23940213	-0.1788571	0.09517937	-0.015362593	-0.43697745	-0.22633782	0.24693829	-0.055234425	0.11053479	-0.14896816	-0.23675925
0.28985873	0.0024990682	0.09270161	-0.41815975	0.053776853	-0.3320258	0.036902882	0.30082288	0.45313102	-0.14446738	-0.15627794	-0.17541349	0.38338357	0.0068714665	-0.4525207	-0.16504437
-0.2741405	0.71101874	0.14205207	0.12031336	-0.22572565	-0.249183	0.4897465	-0.3372789	-0.1760106	-0.56436574	0.36702648	0.6056158	-0.40339068	0.80867964	-0.040488694	-0.77424157
-0.21109657	-0.23334588	-0.13021117	0.31531554	0.19653378	0.21538198	-0.22941732	-0.19245598	-0.22477826	0.1748353	-0.051317394	0.14398809	-0.28607234	-0.24730273	0.28655696	0.2208946
0.18879478	0.82638097	-0.68891555	0.56864923	-0.05680555	-0.6750912	0.593633	-1.0796022	-0.4234686	-0.30019993	-0.08215563	-6.029795e-05	-0.052615825	0.78985	-0.13130832	-0.53521043
-0.069542386	-0.1677042	-0.045184236	0.091362104	0.3046494	0.13159744	-0.250005	0.04586525	-0.08044584	-0.07844693	-0.018596334	0.29121953	-0.16288686	-0.1380683	0.11052748	0.07120216
0.6529782	-0.9760195	-0.5809295	-0.6781213	0.8209149	-0.25773674	-0.953207	0.7915497	0.6435793	-0.29363373	-0.851292	-0.09022193	0.5023641	-0.654405	-0.4568519	0.24107212
-0.21740273	0.119155124	-0.08124819	0.1346883	0.22666427	-0.007800086	-0.030284613	-0.039620586	-0.18638483	-0.30101037	0.100479074	0.61770964	-0.39750427	0.04518353	0.10951277	-0.19287293
0.6974972	-0.6117582	-0.14098191	-0.74556464	0.42115068	-0.41947526	-0.44802278	0.6858003	0.7032236	0.014630385	-0.60591173	-0.46506613	0.7830649	-0.56195873	-0.61119807	0.36493832
-0.26293385	0.26529062	0.3370843	0.07760916	-0.22391188	0.13579166	0.27193	-0.24081111	0.0027021787	0.044519305	0.3133472	0.12989719	-0.15299468	0.20044504	0.09255064	-0.0019385342
0.39842337	0.1509017	-0.8231405	0.100404	0.1789428	-0.54845643	0.0060803783	0.007975242	-0.17393766	-0.4153936	-0.38756782	0.039436087	0.0722656	0.3879103	-0.23084994	-0.605735
0.24017794	-0.41578043	-0.5267982	-0.0044656023	0.58459496	0.058696814	-0.5683054	0.25500193	0.04213702	-0.1758904	-0.47206688	0.19397515	-0.10534306	-0.21838775	-0.0058251466	0.057434656
0.29507107	-0.34563112	-0.331531	-0.20674387	0.53804356	-0.19534531	-0.48666075	0.43734244	0.24710843	-0.47849667	-0.41434658	0.47074807	-0.01521646	-0.0732965	-0.1607141	-0.15036449
0.29934517	0.03618456	-0.3351575	-0.0918625	0.0802316	-0.36835888	0.06729037	0.11708449	0.07266856	-0.13970518	-0.25069526	-0.112362325	0.21511163	0.17559628	-0.31784657	-0.24728681
0.26364264	-0.14197293	-0.24804753	0.26818785	-0.11474722	-0.12493702	0.12939528	-0.4239636	-0.12534522	0.32117355	-0.19469579	-0.3727063	0.21533863	-0.054872174	-0.108891204	0.13070276
-0.082883604	-0.7497225	-0.50637066	0.5245599	0.70655245	0.41764393	-0.6395578	-0.1141244	-0.46491945	0.2952274	-0.53699607	-0.024967087	-0.3141642	-0.58511156	0.43374398	0.61182094
0.43588963	0.2539293	0.010070518	-0.20436253	-0.0887184	-0.49092326	0.68244755	-0.17578235	0.58895606	0.6304748	-0.27012178	-0.6707537	0.65445805	0.18674621	-0.57771605	0.26162016
-0.30208218	0.15906464	0.42996252	-0.0076523684	-0.093168	0.17162213	0.2355688	-0.10545651	0.16624247	0.32632133	0.36203957	0.05492803	0.008473498	-0.109938145	0.087375335	0.19726852
-0.02410433	-0.05622212	-0.53608876	0.4937969	0.32493743	-0.08685817	-0.17367059	-0.35911497	-0.54138184	-0.35112718	-0.09359389	0.37341183	-0.38993207	0.20932324	0.222504	-0.21928519
-0.27360603	0.12406648	0.016723456	0.4196155	-0.0016656299	0.13072847	0.0029872113	-0.3895357	-0.35480806	-0.01565472	0.26496887	0.33894295	-0.32147703	0.08934026	0.22423579	-0.014396902
-0.011122067	0.37620938	-0.07962044	0.12318166	0.018346144	-0.20673484	0.2531244	-0.22868232	-0.08378274	-0.36932144	0.11027606	0.25967678	-0.14076908	0.35043192	-0.07392858	-0.39027634
-0.4731339	-0.9674557	-0.27513885	0.68557864	0.6499633	0.6593652	-0.76481044	-0.32657364	-0.5199133	0.83290136	-0.4214403	0.061500605	-0.47673768	-0.81850404	0.69331855	0.9211795
0.2311043	0.06275983	-0.48933178	0.23342681	0.20726477	-0.28726926	-0.09497844	-0.059279766	-0.2341654	-0.5218268	-0.2929841	0.38736555	-0.235684	0.30961084	-0.021121483	-0.42755654
0.68830866	0.80384225	0.3683532	-0.42169037	-0.85187376	-0.7157544	1.159318	-0.84570944	0.8215606	1.0628185	-0.1042724	-0.9982117	0.99044335	0.43157175	-0.93242466	0.30851495
0.33449358	0.96122146	-0.9046503	0.8083476	0.12056015	-0.80756193	0.57276154	-0.8629154	-0.8008459	-0.8823952	-0.25897804	0.6389403	-0.59518284	0.9196759	-0.17119078	-0.961351
-0.6130627	0.6646523	0.87007266	-0.4780468	-0.39676148	0.2904239	0.6054252	-0.25326157	0.7318133	0.34524247	0.63911045	0.41728106	-0.116198964	0.26061288	-0.0919003	-0.010545304
0.5051206	-0.05664262	-0.1757531	-0.26262861	0.11301936	-0.39933893	0.10374493	0.23238945	0.27999368	-0.015198454	-0.37199172	-0.25915465	0.38455266	0.11268281	-0.46950534	-0.10093916
0.679431	-0.7036423	-0.89472866	-0.58659077	0.874987	-0.44363227	-0.79134375	0.7699168	0.40374938	-0.62067837	-0.7010554	0.19230033	0.32915047	-0.42923486	-0.4751752	-0.10081494
0.30218133	0.6342006	-0.02437958	0.088316426	-0.33134094	-0.3562809	0.8212351	-0.72334224	0.20450556	0.42400888	0.1611772	-0.5826567	0.5266481	0.29102352	-0.4510289	-0.0006144631
-0.043743502	0.4362085	0.070384674	0.19586346	-0.25810394	-0.18680862	0.39019176	-0.5381912	-0.094036765	-0.0018028966	0.2509246	-0.11078087	0.06984675	0.32240513	-0.06637016	-0.18842281
-0.025464881	0.17965893	-0.24398799	0.06768028	0.2504832	-0.30439776	7.1631075e-05	0.013335341	-0.10605809	-0.53876066	0.08373554	0.5140258	-0.29756352	0.36491087	0.016740974	-0.4974799
-0.08614576	0.39646807	0.021958228	0.1087931	-0.1094183	-0.28810656	0.31696153	-0.20380753	-0.0875786	-0.31500253	0.20808993	0.29387125	-0.17136286	0.4280885	-0.14297631	-0.3929594
-0.33547378	-0.6019136	-0.037385236	0.55086017	0.16213252	0.4524644	-0.27181035	-0.46320802	-0.42751643	0.7318631	-0.11040921	-0.23405373	-0.25627366	-0.5365615	0.4395063	0.68824303
0.40587685	-1.1150628	-0.7187693	-0.43765563	0.99749666	0.03981799	-1.0459186	0.77238154	0.443515	-0.13381623	-0.86106586	-0.055333827	0.21348529	-0.78203326	-0.09404966	0.48962954
-0.17475092	0.24661739	-0.1854832	0.17446172	0.1667445	-0.037790097	-0.044201024	-0.084448405	-0.19499484	-0.24091728	0.14796452	0.24545377	-0.23055083	0.28740028	0.13519154	-0.26720783
0.24849708	0.7664011	-0.83315396	0.7230648	0.2440383	-0.60365033	0.38013926	-0.6687345	-0.7162612	-0.81669575	-0.27401835	0.7570706	-0.84815663	0.71909195	0.09913113	-0.8217541
0.52935725	-0.019573836	-0.10202346	-0.07314162	-0.4516883	-0.25314224	0.5133976	-0.4916521	0.26064727	0.76724976	-0.4660833	-0.77671975	0.6201852	-0.07652775	-0.35756847	0.24386014
-0.05835032	0.11328375	0.4879713	-0.06752326	-0.19895935	0.005663847	0.32357726	-0.28688565	0.40183797	0.6378462	0.20655686	-0.45481494	0.44967943	-0.17435738	-0.17320459	0.46412855
-0.18285917	0.07627382	0.1052905	-0.105490156	0.21869984	0.03304691	-0.10542018	0.18178557	0.025462275	-0.24724795	0.081023015	0.54471564	-0.32781753	-0.025533918	0.12692733	-0.13009724
0.26929265	-0.17183326	0.101791985	-0.45949054	0.22704165	-0.07900986	-0.2010638	0.41412783	0.5185369	0.044421118	-0.18419464	-0.07980939	0.43889368	-0.2003508	-0.34516522	0.20355177
-0.22267039	0.023112537	0.31228247	-0.24069475	0.19266292	0.25973713	-0.13299361	0.20209865	0.26422435	-0.05132975	0.1950304	0.4951977	-0.1835714	-0.17534192	0.13976091	0.21183084
0.06655765	0.033664227	-0.10139986	-0.20292504	0.16485126	-0.15761973	-0.021212477	0.2168167	0.10930429	-0.26711044	0.011528828	0.16533326	0.022418102	0.13914087	-0.13171667	-0.2124432
-0.5988071	0.12348375	0.7476297	0.050541457	-0.18094394	0.47830728	0.17392765	-0.24528036	0.24935119	0.7637359	0.46296793	0.07265112	-0.15791127	-0.35004306	0.3143237	0.6176036
0.811889	0.7438854	0.54600143	-0.6879509	-0.8749523	-0.76618654	1.093491	-0.62615407	1.0473655	1.118588	-0.34972495	-1.0513783	1.0936222	0.28541255	-0.97644955	0.35229042
0.41067162	0.12329723	-0.44123393	-0.20843238	0.17255893	-0.58400476	-0.026530884	0.27597386	0.16775425	-0.45159277	-0.31197435	0.12577175	0.14892188	0.36233625	-0.45305002	-0.55969435
-0.81336975	-0.95583487	-0.3249186	0.86770755	0.8186532	0.7892994	-0.8143231	-0.69010615	-0.8433263	0.8075825	-0.22995198	0.7259495	-0.8732235	-0.7858925	0.84163576	0.98830587
0.13410373	0.08651157	-0.19020976	-0.03315392	0.23769437	-0.26739183	-0.013965693	0.021077877	0.05999376	-0.40722096	-0.039760966	0.23428589	-0.06668113	0.19678837	-0.15053758	-0.35788807
-0.525625	0.48102868	0.45476082	0.08593312	-0.11389371	0.15008138	0.32227114	-0.39267424	0.067761384	-0.11132433	0.46645325	0.64019215	-0.52974486	0.23201916	0.2980873	-0.14427407
-0.13460715	-0.124469176	-0.40716264	0.40541288	0.28907678	0.104850054	-0.2404735	-0.19215119	-0.3656343	-0.23304342	-0.031308934	0.5821159	-0.4896414	-0.0018008476	0.272442	-0.025124555
0.8890938	-1.1101416	-0.61733735	-0.86719155	0.9422917	-0.3096711	-1.0166091	1.0064787	0.83055556	-0.44624674	-0.82787526	-0.3149986	0.8553472	-1.0608829	-0.6939913	0.7830426
0.5415484	0.119264886	-0.8382246	-0.018123891	0.4777649	-0.7025051	-0.2812365	0.26427034	-0.18089905	-0.8144072	-0.42007494	0.7538027	-0.18483745	0.45282558	-0.46185625	-0.7504695
-0.053572826	0.7358473	-0.082894236	0.5296647	-0.21813637	-0.41766694	0.49056888	-0.56504756	-0.48986897	-0.5240345	0.25973797	0.51905966	-0.35847956	0.79893976	-0.07307099	-0.7374533
0.27577946	-0.25686708	-0.43005517	0.17598704	0.3283639	-0.10224834	-0.27273512	0.029075095	-0.06588581	-0.15582067	-0.38586757	-0.032780804	0.028080733	-0.07892186	-0.028718216	-0.00915937
0.4996985	-0.040090453	-0.4221484	0.06174084	0.22711429	-0.39584196	-0.05221713	0.055542476	-0.025918271	-0.4153449	-0.47573727	0.09364372	0.040287104	0.25859338	-0.3288917	-0.34246504
-0.51368654	0.10028652	0.3055416	0.2461337	-0.0736465	0.39029258	0.0691017	-0.21981052	-0.14807074	0.06338219	0.38778946	0.5791733	-0.54070115	-0.059962146	0.378286	0.10846679
0.046387147	0.017733967	-0.036167275	-0.09436932	0.21589838	-0.076220125	0.00012901744	0.16243161	0.20994303	-0.09295571	-0.06868414	0.1416232	-0.0053137573	0.0032183393	-0.19081847	-0.050289363
-0.21399952	0.019107252	0.072193466	0.13544779	0.06959708	0.12638445	-0.046171628	-0.21994829	-0.025384719	0.11376771	0.0958963	0.08448237	-0.16964713	-0.15265612	0.15943599	0.20911744
0.41871026	0.3227576	-0.4240075	0.118903734	-0.30125877	-0.5526122	0.5167351	-0.32907474	-0.007868324	-0.11435722	-0.27100393	-0.39212123	0.33993348	0.4804783	-0.3640346	-0.38167748
0.5633153	0.13045016	0.0063679223	-0.37135023	-0.33015653	-0.5296349	0.4980517	0.025720477	0.44945887	0.5097612	-0.21756612	-0.59445393	0.6639577	0.22901322	-0.6687829	0.042370234
0.37759557	-0.3151951	0.13187397	-0.64748824	0.14142643	-0.14652902	-0.20857649	0.49062857	0.6315627	0.1265772	-0.2315658	-0.37120873	0.56367475	-0.35894093	-0.48683235	0.2284858
-0.47975636	0.16161591	-0.043025754	0.54591227	0.039830837	0.14556508	0.09835484	-0.5570904	-0.46214676	-0.16805543	0.30979955	0.58953905	-0.58395696	0.07627548	0.35206378	-0.10347198
-0.028692868	0.13514496	-0.23053221	0.2994309	-0.07803339	-0.04834925	0.21383092	-0.39560387	-0.217828	0.020778721	0.059281696	-0.04784051	-0.047927465	0.21014874	0.033940405	-0.068714656
0.08643841	0.0031307945	0.110777415	-0.06572017	0.041117597	-0.080311745	0.06006782	-0.041440148	0.08082084	-0.001474993	0.0016242961	-0.057611737	0.19059297	0.00457483	-0.07426938	0.0677209
0.22168627	0.57301885	-1.140849	0.5742639	0.390943	-0.79069954	0.04541066	-0.22220463	-0.6626899	-1.022032	-0.24659677	0.85605264	-0.6928391	0.87601143	-0.02328966	-1.0124005
-0.7120864	0.43720737	0.60023975	0.20446321	-0.35035527	0.3914604	0.44364935	-0.5620226	0.07078218	0.3726213	0.57864743	0.5064816	-0.44107547	0.15032282	0.3511995	0.08741162
-0.13158168	-0.034683373	0.33527175	-0.28089133	0.2007464	0.123362675	-0.023412583	0.21403578	0.40396076	-0.03540333	0.08889118	0.16648099	-0.009118665	-0.18908586	-0.09303516	0.17191231
-0.16495635	0.46376798	0.1732668	0.078793876	-0.2515804	-0.22324674	0.5550962	-0.33816078	0.045673538	-0.039691698	0.31213614	0.02214065	0.12993865	0.34167323	-0.21368079	-0.3140689
0.6161083	-0.02648624	-0.6599902	-0.06456906	-0.16921063	-0.38419816	0.16147491	-0.04941521	0.016237605	0.0804246	-0.55046815	-0.39501324	0.4121896	0.1658579	-0.4078704	-0.22538188
-0.348033	0.56479037	0.30948377	0.00017405536	-0.10591064	-0.18462418	0.48665568	-0.30165127	0.17931211	-0.2563097	0.36349	0.45685133	-0.15528715	0.44734502	-0.20163837	-0.50411147
